{"learner":{"attributes":{"scikit_learn":"{\"_estimator_type\": \"classifier\"}"},"feature_names":[],"feature_types":[],"gradient_booster":{"model":{"cats":{"enc":[],"feature_segments":[],"sorted_idx":[]},"gbtree_model_param":{"num_parallel_tree":"1","num_trees":"300"},"iteration_indptr":[0,1,2,3,4,5,6,7,8,9,10,11,12,13,14,15,16,17,18,19,20,21,22,23,24,25,26,27,28,29,30,31,32,33,34,35,36,37,38,39,40,41,42,43,44,45,46,47,48,49,50,51,52,53,54,55,56,57,58,59,60,61,62,63,64,65,66,67,68,69,70,71,72,73,74,75,76,77,78,79,80,81,82,83,84,85,86,87,88,89,90,91,92,93,94,95,96,97,98,99,100,101,102,103,104,105,106,107,108,109,110,111,112,113,114,115,116,117,118,119,120,121,122,123,124,125,126,127,128,129,130,131,132,133,134,135,136,137,138,139,140,141,142,143,144,145,146,147,148,149,150,151,152,153,154,155,156,157,158,159,160,161,162,163,164,165,166,167,168,169,170,171,172,173,174,175,176,177,178,179,180,181,182,183,184,185,186,187,188,189,190,191,192,193,194,195,196,197,198,199,200,201,202,203,204,205,206,207,208,209,210,211,212,213,214,215,216,217,218,219,220,221,222,223,224,225,226,227,228,229,230,231,232,233,234,235,236,237,238,239,240,241,242,243,244,245,246,247,248,249,250,251,252,253,254,255,256,257,258,259,260,261,262,263,264,265,266,267,268,269,270,271,272,273,274,275,276,277,278,279,280,281,282,283,284,285,286,287,288,289,290,291,292,293,294,295,296,297,298,299,300],"tree_info":[0,0,0,0,0,0,0,0,0,0,0,0,0,0,0,0,0,0,0,0,0,0,0,0,0,0,0,0,0,0,0,0,0,0,0,0,0,0,0,0,0,0,0,0,0,0,0,0,0,0,0,0,0,0,0,0,0,0,0,0,0,0,0,0,0,0,0,0,0,0,0,0,0,0,0,0,0,0,0,0,0,0,0,0,0,0,0,0,0,0,0,0,0,0,0,0,0,0,0,0,0,0,0,0,0,0,0,0,0,0,0,0,0,0,0,0,0,0,0,0,0,0,0,0,0,0,0,0,0,0,0,0,0,0,0,0,0,0,0,0,0,0,0,0,0,0,0,0,0,0,0,0,0,0,0,0,0,0,0,0,0,0,0,0,0,0,0,0,0,0,0,0,0,0,0,0,0,0,0,0,0,0,0,0,0,0,0,0,0,0,0,0,0,0,0,0,0,0,0,0,0,0,0,0,0,0,0,0,0,0,0,0,0,0,0,0,0,0,0,0,0,0,0,0,0,0,0,0,0,0,0,0,0,0,0,0,0,0,0,0,0,0,0,0,0,0,0,0,0,0,0,0,0,0,0,0,0,0,0,0,0,0,0,0,0,0,0,0,0,0,0,0,0,0,0,0,0,0,0,0,0,0,0,0,0,0,0,0,0,0,0,0,0,0,0,0,0,0,0,0],"trees":[{"base_weights":[6.8189534E-3,1.7759438E-1,-2.8872032E0,7.99947E-1,-4.431877E-1,3.910914E-1,-1.5007244E-1,8.933772E-1,-1.5336556E0,-9.565309E-2,-1.2099118E0,3.8738556E-2,-8.95585E-3,4.92295E-2,-3.38444E-2,-1.2245232E-1,-1.5547009E-2,-3.36959E-2,2.0356769E-2,-3.1185478E-2,-9.454927E-2],"categories":[],"categories_nodes":[],"categories_segments":[],"categories_sizes":[],"default_left":[0,0,0,0,0,0,0,0,0,0,0,0,0,0,0,0,0,0,0,0,0],"id":0,"left_children":[1,3,5,7,9,11,-1,13,15,17,19,-1,-1,-1,-1,-1,-1,-1,-1,-1,-1],"loss_changes":[6.08059E2,4.4918283E2,2.6849976E1,1.27933014E2,1.5503015E2,8.3741045E-1,0E0,8.0698456E1,2.4661758E1,1.1707462E2,7.128943E1,0E0,0E0,0E0,0E0,0E0,0E0,0E0,0E0,0E0,0E0],"parents":[2147483647,0,0,1,1,2,2,3,3,4,4,5,5,7,7,8,8,9,9,10,10],"right_children":[2,4,6,8,10,12,-1,14,16,18,20,-1,-1,-1,-1,-1,-1,-1,-1,-1,-1],"split_conditions":[3.5413258E0,-4.7546217E-1,-4.1975203E-1,2.6518745E0,1.0472313E0,2.126236E-2,-1.5007244E-1,7.517455E-2,9.777331E-3,-4.2618267E-2,-2.3889625E-3,3.8738556E-2,-8.95585E-3,4.92295E-2,-3.38444E-2,-1.2245232E-1,-1.5547009E-2,-3.36959E-2,2.0356769E-2,-3.1185478E-2,-9.454927E-2],"split_indices":[390,386,401,391,391,4,0,387,163,244,274,0,0,0,0,0,0,0,0,0,0],"split_type":[0,0,0,0,0,0,0,0,0,0,0,0,0,0,0,0,0,0,0,0,0],"sum_hessian":[1.2282838E3,1.1607281E3,6.755561E1,5.7948676E2,5.8124146E2,2.193364E0,6.536224E1,5.5777246E2,2.1714302E1,4.007276E2,1.8051385E2,1.096682E0,1.096682E0,5.27504E2,3.0268421E1,1.1844165E1,9.870137E0,1.862166E2,2.1451099E2,9.8043365E1,8.247048E1],"tree_param":{"num_deleted":"0","num_feature":"404","num_nodes":"21","size_leaf_vector":"1"}},{"base_weights":[-2.251022E-2,-8.463742E-1,6.095945E-1,-6.00921E-1,-2.6860588E0,7.131502E-1,-1.6011851E0,-1.9992913E-1,-1.4130012E0,-9.500654E-3,-1.3635086E-1,7.7467453E-1,-2.4706702E0,8.62354E-1,-2.0377762E0,3.0933252E-2,-2.6708165E-2,-2.5920196E-2,-9.009908E-2,4.867534E-2,8.063092E-3,-7.464987E-3,-1.3387881E-1,-7.995721E-3,5.800686E-2,-1.3165478E-1,-3.7377965E-2],"categories":[],"categories_nodes":[],"categories_segments":[],"categories_sizes":[],"default_left":[0,0,0,0,0,0,0,0,0,0,0,0,0,0,0,0,0,0,0,0,0,0,0,0,0,0,0],"id":1,"left_children":[1,3,5,7,9,11,13,15,17,-1,-1,19,21,23,25,-1,-1,-1,-1,-1,-1,-1,-1,-1,-1,-1,-1],"loss_changes":[6.430115E2,2.4044086E2,1.6110135E2,1.5414555E2,5.903412E0,1.3278836E2,3.57145E1,8.750991E1,5.3558624E1,0E0,0E0,7.9880035E1,5.798523E0,1.8462582E0,1.8859291E1,0E0,0E0,0E0,0E0,0E0,0E0,0E0,0E0,0E0,0E0,0E0,0E0],"parents":[2147483647,0,0,1,1,2,2,3,3,4,4,5,5,6,6,7,7,8,8,11,11,12,12,13,13,14,14],"right_children":[2,4,6,8,10,12,14,16,18,-1,-1,20,22,24,26,-1,-1,-1,-1,-1,-1,-1,-1,-1,-1,-1,-1],"split_conditions":[-2.5325399E-8,3.5413258E0,2.6518745E0,1.0472313E0,-4.1975203E-1,4.686815E0,-4.1335523E-2,-4.2338595E-2,-2.469176E-2,-9.500654E-3,-1.3635086E-1,8.69683E-3,-1.5772909E-2,-2.2397708E-2,1.7824974E-2,3.0933252E-2,-2.6708165E-2,-2.5920196E-2,-9.009908E-2,4.867534E-2,8.063092E-3,-7.464987E-3,-1.3387881E-1,-7.995721E-3,5.800686E-2,-1.3165478E-1,-3.7377965E-2],"split_indices":[319,390,391,391,401,395,137,338,211,0,0,274,130,84,132,0,0,0,0,0,0,0,0,0,0,0,0],"split_type":[0,0,0,0,0,0,0,0,0,0,0,0,0,0,0,0,0,0,0,0,0,0,0,0,0,0,0],"sum_hessian":[1.2327452E3,5.350457E2,6.976996E2,4.7323297E2,6.1812763E1,6.6712787E2,3.0571686E1,3.1763583E2,1.5559714E2,1.0889726E0,6.072379E1,6.55223E2,1.1904875E1,4.4555106E0,2.6116175E1,9.1843956E1,2.2579187E2,4.7859676E1,1.07737465E2,4.9438535E2,1.6083766E2,1.1151451E0,1.078973E1,1.1095362E0,3.3459747E0,1.7158329E1,8.957847E0],"tree_param":{"num_deleted":"0","num_feature":"404","num_nodes":"27","size_leaf_vector":"1"}},{"base_weights":[-9.911531E-3,4.841345E-1,-1.3707898E0,5.8641165E-1,-2.28923E0,-7.8298056E-1,-1.96153E0,1.1841121E0,2.7034658E-1,-2.4176347E0,2.0912617E-2,1.0617703E-1,-1.2631766E0,-2.220282E0,-1.2429396E0,6.249566E-2,-1.0714587E-1,-1.7763838E-2,2.7013978E-2,-1.23825565E-1,-2.5034193E-2,-4.7413882E-2,2.4427023E-2,-2.7394345E-2,-9.330668E-2,2.6846325E-2,-1.130852E-1,-1.4009969E-2,-8.766123E-2],"categories":[],"categories_nodes":[],"categories_segments":[],"categories_sizes":[],"default_left":[0,0,0,0,0,0,0,0,0,0,0,0,0,0,0,0,0,0,0,0,0,0,0,0,0,0,0,0,0],"id":2,"left_children":[1,3,5,7,9,11,13,15,17,19,-1,21,23,25,27,-1,-1,-1,-1,-1,-1,-1,-1,-1,-1,-1,-1,-1,-1],"loss_changes":[8.287911E2,2.5787616E2,1.12470764E2,1.646051E2,1.2264832E1,7.11104E1,2.7564209E1,6.872232E1,9.684802E1,2.2646942E0,0E0,2.4338186E1,4.556398E1,1.4763916E1,2.1836678E1,0E0,0E0,0E0,0E0,0E0,0E0,0E0,0E0,0E0,0E0,0E0,0E0,0E0,0E0],"parents":[2147483647,0,0,1,1,2,2,3,3,4,4,5,5,6,6,7,7,8,8,9,9,11,11,12,12,13,13,14,14],"right_children":[2,4,6,8,10,12,14,16,18,20,-1,22,24,26,28,-1,-1,-1,-1,-1,-1,-1,-1,-1,-1,-1,-1,-1,-1],"split_conditions":[4.2900047E-1,3.5413258E0,-1.7591114E-1,-6.421773E-1,6.931467E-2,-3.8581484E-3,2.970061E-1,9.707494E-2,-6.2486656E-2,5.4693457E-2,2.0912617E-2,-2.4161462E-2,1.0132793E0,-1.2585017E-1,-3.6976095E-2,6.249566E-2,-1.0714587E-1,-1.7763838E-2,2.7013978E-2,-1.23825565E-1,-2.5034193E-2,-4.7413882E-2,2.4427023E-2,-2.7394345E-2,-9.330668E-2,2.6846325E-2,-1.130852E-1,-1.4009969E-2,-8.766123E-2],"split_indices":[400,390,386,400,113,118,384,148,244,190,0,26,400,191,284,0,0,0,0,0,0,0,0,0,0,0,0,0,0],"split_type":[0,0,0,0,0,0,0,0,0,0,0,0,0,0,0,0,0,0,0,0,0,0,0,0,0,0,0,0,0],"sum_hessian":[1.2307157E3,9.0339594E2,3.2731982E2,8.720256E2,3.1370337E1,1.6523253E2,1.620873E2,3.0067758E2,5.71348E2,3.0052141E1,1.3181945E0,5.82158E1,1.0701672E2,1.1763807E2,4.4449223E1,2.954584E2,5.219179E0,1.7211685E2,3.9923117E2,2.8873434E1,1.1787082E0,1.5098416E1,4.3117386E1,4.9821724E1,5.7194996E1,1.5640861E0,1.1607398E2,1.593473E1,2.8514494E1],"tree_param":{"num_deleted":"0","num_feature":"404","num_nodes":"29","size_leaf_vector":"1"}},{"base_weights":[-3.9472138E-3,4.4390333E-1,-1.1962593E0,5.498146E-1,-2.1729672E0,-6.7077965E-1,-1.7321192E0,1.1424491E0,2.4689865E-1,2.0872265E-2,-2.2867374E0,1.6550082E-1,-1.1689649E0,-1.9995692E0,-1.0077502E0,6.031028E-2,-1.0803695E-1,2.542806E-2,-1.9531427E-2,-1.16775386E-1,-2.532116E-2,3.1071393E-2,-4.708181E-2,-2.4348356E-2,-8.416446E-2,4.181153E-2,-1.01699404E-1,-3.2421723E-3,-7.567824E-2],"categories":[],"categories_nodes":[],"categories_segments":[],"categories_sizes":[],"default_left":[0,0,0,0,0,0,0,0,0,0,0,0,0,0,0,0,0,0,0,0,0,0,0,0,0,0,0,0,0],"id":3,"left_children":[1,3,5,7,9,11,13,15,17,-1,19,21,23,25,27,-1,-1,-1,-1,-1,-1,-1,-1,-1,-1,-1,-1,-1,-1],"loss_changes":[6.579131E2,2.4943712E2,9.3570404E1,1.5439734E2,1.1281906E1,7.164033E1,3.013211E1,6.392624E1,9.552901E1,0E0,1.745224E0,3.334354E1,3.6920624E1,1.34305725E1,2.2204208E1,0E0,0E0,0E0,0E0,0E0,0E0,0E0,0E0,0E0,0E0,0E0,0E0,0E0,0E0],"parents":[2147483647,0,0,1,1,2,2,3,3,4,4,5,5,6,6,7,7,8,8,10,10,11,11,12,12,13,13,14,14],"right_children":[2,4,6,8,10,12,14,16,18,-1,20,22,24,26,28,-1,-1,-1,-1,-1,-1,-1,-1,-1,-1,-1,-1,-1,-1],"split_conditions":[4.2900047E-1,3.5413258E0,-1.7591114E-1,-6.421773E-1,-4.1975203E-1,2.8156425E-4,2.858469E-1,1.3352238E-1,-2.9435825E-1,2.0872265E-2,6.491263E-2,2.204738E-2,2.9223159E-2,-1.2677808E-1,-3.6976095E-2,6.031028E-2,-1.0803695E-1,2.542806E-2,-1.9531427E-2,-1.16775386E-1,-2.532116E-2,3.1071393E-2,-4.708181E-2,-2.4348356E-2,-8.416446E-2,4.181153E-2,-1.01699404E-1,-3.2421723E-3,-7.567824E-2],"split_indices":[400,390,386,400,401,118,384,167,397,0,190,14,174,272,284,0,0,0,0,0,0,0,0,0,0,0,0,0,0],"split_type":[0,0,0,0,0,0,0,0,0,0,0,0,0,0,0,0,0,0,0,0,0,0,0,0,0,0,0,0,0],"sum_hessian":[1.2301042E3,8.946775E2,3.3542676E2,8.606353E2,3.4042145E1,1.704906E2,1.6493617E2,2.9016855E2,5.704668E2,1.3199195E0,3.2722225E1,6.3897175E1,1.0659342E2,1.1917443E2,4.5761745E1,2.8529672E2,4.871813E0,4.0460544E2,1.6586134E2,3.1546192E1,1.1760336E0,4.5569878E1,1.8327297E1,4.666375E1,5.9929672E1,1.1497545E0,1.1802467E2,1.6371412E1,2.9390335E1],"tree_param":{"num_deleted":"0","num_feature":"404","num_nodes":"29","size_leaf_vector":"1"}},{"base_weights":[6.9303727E-3,4.2908886E-1,-1.1283604E0,5.3406024E-1,-1.9821317E0,-6.065656E-1,-1.624803E0,1.1361848E0,2.2973357E-1,2.1919109E-2,-2.0829473E0,-2.1465208E-1,-1.4934093E0,-1.7080377E0,1.4423937E-1,6.0148306E-2,-1.0812762E-1,-1.1184752E-2,2.975005E-2,-2.2352934E-2,-1.06290035E-1,-6.894613E-2,1.4676963E-3,2.6121242E-2,-8.5208274E-2,-8.8189855E-2,1.614559E-2,5.5744816E-2,-5.869935E-2],"categories":[],"categories_nodes":[],"categories_segments":[],"categories_sizes":[],"default_left":[0,0,0,0,0,0,0,0,0,0,0,0,0,0,0,0,0,0,0,0,0,0,0,0,0,0,0,0,0],"id":4,"left_children":[1,3,5,7,9,11,13,15,17,-1,19,21,23,25,27,-1,-1,-1,-1,-1,-1,-1,-1,-1,-1,-1,-1,-1,-1],"loss_changes":[5.8682855E2,2.2696268E2,8.4987274E1,1.566074E2,1.0051025E1,5.647463E1,2.520169E1,6.586069E1,9.452332E1,0E0,1.5819855E0,3.2567192E1,2.2096031E1,1.890863E1,1.2233603E1,0E0,0E0,0E0,0E0,0E0,0E0,0E0,0E0,0E0,0E0,0E0,0E0,0E0,0E0],"parents":[2147483647,0,0,1,1,2,2,3,3,4,4,5,5,6,6,7,7,8,8,10,10,11,11,12,12,13,13,14,14],"right_children":[2,4,6,8,10,12,14,16,18,-1,20,22,24,26,28,-1,-1,-1,-1,-1,-1,-1,-1,-1,-1,-1,-1,-1,-1],"split_conditions":[4.2900047E-1,3.5413258E0,-1.7591114E-1,-6.421773E-1,-5.5547334E-2,1.6949378E0,7.910368E-2,1.3352238E-1,-4.2618267E-2,2.1919109E-2,-7.209977E-2,5.1189166E-1,-1.1959927E-1,7.901713E-2,-5.068023E-2,6.0148306E-2,-1.0812762E-1,-1.1184752E-2,2.975005E-2,-2.2352934E-2,-1.06290035E-1,-6.894613E-2,1.4676963E-3,2.6121242E-2,-8.5208274E-2,-8.8189855E-2,1.614559E-2,5.5744816E-2,-5.869935E-2],"split_indices":[400,390,386,400,135,400,104,167,244,0,227,402,17,62,74,0,0,0,0,0,0,0,0,0,0,0,0,0,0],"split_type":[0,0,0,0,0,0,0,0,0,0,0,0,0,0,0,0,0,0,0,0,0,0,0,0,0,0,0,0,0],"sum_hessian":[1.2224049E3,8.915162E2,3.308887E2,8.550696E2,3.6446564E1,1.6240834E2,1.6848036E2,2.861584E2,5.689112E2,1.3234327E0,3.512313E1,1.1349481E2,4.891353E1,1.6094238E2,7.537975E0,2.8110294E2,5.0554633E0,2.5399693E2,3.1491425E2,1.1884227E0,3.3934708E1,1.8858866E1,9.463595E1,4.4898963E0,4.4423634E1,1.5676984E2,4.1725435E0,4.430146E0,3.1078289E0],"tree_param":{"num_deleted":"0","num_feature":"404","num_nodes":"29","size_leaf_vector":"1"}},{"base_weights":[1.7937148E-2,4.6319717E-1,-1.0376915E0,5.6032E-1,-1.8852756E0,-7.4497354E-1,-1.7566295E0,1.1211765E0,2.6823485E-1,3.715629E-2,-1.9915099E0,-2.080676E-1,-1.2990285E0,-9.5079184E-1,-1.9605446E0,-8.048823E-2,5.9695728E-2,2.2949805E-2,-3.0287033E-2,-2.0624232E-2,-1.01884425E-1,2.3683727E-2,-3.361785E-2,-2.8474003E-2,-7.6454364E-2,1.0302346E-2,-8.90431E-2,-2.0054925E-2,-1.0303046E-1],"categories":[],"categories_nodes":[],"categories_segments":[],"categories_sizes":[],"default_left":[0,0,0,0,0,0,0,0,0,0,0,0,0,0,0,0,0,0,0,0,0,0,0,0,0,0,0,0,0],"id":5,"left_children":[1,3,5,7,9,11,13,15,17,-1,19,21,23,25,27,-1,-1,-1,-1,-1,-1,-1,-1,-1,-1,-1,-1,-1,-1],"loss_changes":[5.741797E2,1.9702135E2,7.495804E1,1.3498105E2,1.1071098E1,7.685953E1,1.524585E1,5.803427E1,9.102871E1,0E0,1.5866547E0,4.2374996E1,2.0513947E1,2.2423061E1,1.1993408E1,0E0,0E0,0E0,0E0,0E0,0E0,0E0,0E0,0E0,0E0,0E0,0E0,0E0,0E0],"parents":[2147483647,0,0,1,1,2,2,3,3,4,4,5,5,6,6,7,7,8,8,10,10,11,11,12,12,13,13,14,14],"right_children":[2,4,6,8,10,12,14,16,18,-1,20,22,24,26,28,-1,-1,-1,-1,-1,-1,-1,-1,-1,-1,-1,-1,-1,-1],"split_conditions":[3.316207E-1,3.5413258E0,1.6949378E0,-6.421773E-1,-7.208304E-2,-1.4792874E-1,-2.2032524E-2,-1.21382855E-1,5.22255E-1,3.715629E-2,-8.783656E-2,3.0088844E-3,-3.81882E-2,-5.6201644E-4,-6.804502E-2,-8.048823E-2,5.9695728E-2,2.2949805E-2,-3.0287033E-2,-2.0624232E-2,-1.01884425E-1,2.3683727E-2,-3.361785E-2,-2.8474003E-2,-7.6454364E-2,1.0302346E-2,-8.90431E-2,-2.0054925E-2,-1.0303046E-1],"split_indices":[400,390,400,400,151,386,311,165,386,0,204,118,328,251,169,0,0,0,0,0,0,0,0,0,0,0,0,0,0],"split_type":[0,0,0,0,0,0,0,0,0,0,0,0,0,0,0,0,0,0,0,0,0,0,0,0,0,0,0,0,0],"sum_hessian":[1.2195602E3,8.58155E2,3.614052E2,8.2480597E2,3.334906E1,2.5828134E2,1.0312388E2,2.8147824E2,5.433277E2,1.0626353E0,3.2286427E1,1.3186922E2,1.2641211E2,2.1968971E1,8.115491E1,6.754388E0,2.7472385E2,4.4637335E2,9.695437E1,1.1996087E0,3.1086817E1,5.3415718E1,7.845351E1,3.1139574E1,9.527254E1,9.492036E0,1.2476935E1,5.1954417E0,7.5959465E1],"tree_param":{"num_deleted":"0","num_feature":"404","num_nodes":"29","size_leaf_vector":"1"}},{"base_weights":[2.1343208E-3,6.871876E-1,-6.1838156E-1,7.53996E-1,-2.0384321E0,-2.892888E-1,-1.3411235E0,-6.387126E-1,8.5521287E-1,3.1233223E-3,-1.1338413E-1,7.461645E-2,-1.1906437E0,-9.5593685E-1,-1.7060058E0,-1.0211934E-1,1.0435746E-2,5.475064E-2,1.7375387E-2,1.9687798E-2,-3.913425E-2,-7.757841E-2,-1.4075341E-2,-7.6508485E-2,-2.559754E-2,-8.7962024E-2,4.8723597E-2],"categories":[],"categories_nodes":[],"categories_segments":[],"categories_sizes":[],"default_left":[0,0,0,0,0,0,0,0,0,0,0,0,0,0,0,0,0,0,0,0,0,0,0,0,0,0,0],"id":6,"left_children":[1,3,5,7,9,11,13,15,17,-1,-1,19,21,23,25,-1,-1,-1,-1,-1,-1,-1,-1,-1,-1,-1,-1],"loss_changes":[5.137279E2,1.061304E2,1.5044046E2,7.9681366E1,6.890396E0,1.4342986E2,2.6215912E1,4.634997E1,6.338745E1,0E0,0E0,8.57415E1,4.0824646E1,2.4369553E1,1.6051117E1,0E0,0E0,0E0,0E0,0E0,0E0,0E0,0E0,0E0,0E0,0E0,0E0],"parents":[2147483647,0,0,1,1,2,2,3,3,4,4,5,5,6,6,7,7,8,8,11,11,12,12,13,13,14,14],"right_children":[2,4,6,8,10,12,14,16,18,-1,-1,20,22,24,26,-1,-1,-1,-1,-1,-1,-1,-1,-1,-1,-1,-1],"split_conditions":[-2.526581E-1,4.686815E0,1.0132793E0,-6.1319847E-2,-8.823412E-2,1.4433184E-1,-7.629994E-3,-4.3270204E-2,-4.7546217E-1,3.1233223E-3,-1.1338413E-1,4.2077813E-2,-5.2072636E-33,-3.4848888E-8,1.0663109E-1,-1.0211934E-1,1.0435746E-2,5.475064E-2,1.7375387E-2,1.9687798E-2,-3.913425E-2,-7.757841E-2,-1.4075341E-2,-7.6508485E-2,-2.559754E-2,-8.7962024E-2,4.8723597E-2],"split_indices":[400,395,400,113,9,386,322,383,386,0,0,67,127,319,72,0,0,0,0,0,0,0,0,0,0,0,0],"split_type":[0,0,0,0,0,0,0,0,0,0,0,0,0,0,0,0,0,0,0,0,0,0,0,0,0,0,0],"sum_hessian":[1.2065262E3,5.733913E2,6.3313495E2,5.60379E2,1.3012238E1,4.36005E2,1.9712991E2,3.760717E1,5.2277185E2,1.3517776E0,1.166046E1,3.1125772E2,1.2474729E2,9.765775E1,9.947217E1,1.3626391E1,2.398078E1,3.5428076E2,1.6849113E2,2.2721518E2,8.404255E1,8.879093E1,3.595636E1,4.1516125E1,5.614163E1,9.78721E1,1.6000648E0],"tree_param":{"num_deleted":"0","num_feature":"404","num_nodes":"27","size_leaf_vector":"1"}},{"base_weights":[-1.4633972E-3,5.415649E-1,-6.914122E-1,-5.3684976E-2,8.521278E-1,-3.4242833E-1,-1.2559422E0,-8.848258E-1,4.8063615E-1,9.414465E-1,-1.5220536E0,8.204763E-2,-1.0576549E0,-7.4704593E-1,-1.5308361E0,2.3133162E-2,-6.146021E-2,-7.300842E-2,3.40587E-2,-6.96911E-2,4.9329117E-2,-1.12838864E-1,9.565227E-3,1.1324892E-2,-1.0362126E-1,-1.5499704E-2,-7.664317E-2,-5.9802707E-2,5.146142E-3,-2.329557E-3,-8.1721894E-2],"categories":[],"categories_nodes":[],"categories_segments":[],"categories_sizes":[],"default_left":[0,0,0,0,0,0,0,0,0,0,0,0,0,0,0,0,0,0,0,0,0,0,0,0,0,0,0,0,0,0,0],"id":7,"left_children":[1,3,5,7,9,11,13,15,17,19,21,23,25,27,29,-1,-1,-1,-1,-1,-1,-1,-1,-1,-1,-1,-1,-1,-1,-1,-1],"loss_changes":[4.5525525E2,1.25743454E2,1.0500246E2,1.0437313E2,9.6199005E1,1.0090816E2,2.7404022E1,4.323533E1,5.6698124E1,4.6836212E1,2.130946E1,6.561675E1,4.3495087E1,2.8183289E1,2.0151398E1,0E0,0E0,0E0,0E0,0E0,0E0,0E0,0E0,0E0,0E0,0E0,0E0,0E0,0E0,0E0,0E0],"parents":[2147483647,0,0,1,1,2,2,3,3,4,4,5,5,6,6,7,7,8,8,9,9,10,10,11,11,12,12,13,13,14,14],"right_children":[2,4,6,8,10,12,14,16,18,20,22,24,26,28,30,-1,-1,-1,-1,-1,-1,-1,-1,-1,-1,-1,-1,-1,-1,-1,-1],"split_conditions":[-5.7898507E-2,-4.698434E-2,1.0132793E0,-4.374319E-1,2.6518745E0,1.1795064E-2,-3.005537E-1,-3.482114E-2,-5.775529E-2,-9.560024E-2,-5.302514E-3,4.686815E0,1.9505253E-2,-1.3891497E-2,-8.813642E-2,2.3133162E-2,-6.146021E-2,-7.300842E-2,3.40587E-2,-6.96911E-2,4.9329117E-2,-1.12838864E-1,9.565227E-3,1.1324892E-2,-1.0362126E-1,-1.5499704E-2,-7.664317E-2,-5.9802707E-2,5.146142E-3,-2.329557E-3,-8.1721894E-2],"split_indices":[400,244,400,399,391,386,386,328,113,321,303,395,174,355,191,0,0,0,0,0,0,0,0,0,0,0,0,0,0,0,0],"split_type":[0,0,0,0,0,0,0,0,0,0,0,0,0,0,0,0,0,0,0,0,0,0,0,0,0,0,0,0,0,0,0],"sum_hessian":[1.2131106E3,6.789523E2,5.341583E2,2.3306613E2,4.4588614E2,3.310901E2,2.0306827E2,9.094479E1,1.4212134E2,4.3030133E2,1.5584826E1,2.0833296E2,1.22757126E2,7.2524704E1,1.3054356E2,1.8441833E1,7.250296E1,1.2721493E1,1.2939986E2,7.592551E0,4.2270877E2,1.0685497E1,4.899329E0,1.9608124E2,1.2251721E1,4.834567E1,7.441145E1,4.718917E1,2.5335535E1,8.612139E0,1.2193142E2],"tree_param":{"num_deleted":"0","num_feature":"404","num_nodes":"31","size_leaf_vector":"1"}},{"base_weights":[-1.047118E-2,3.588766E-1,-9.2373675E-1,4.539959E-1,-1.7187612E0,-5.065898E-1,-1.3380163E0,1.0414735E0,1.8573612E-1,4.1843493E-2,-1.8433722E0,2.3160546E-1,-8.609338E-1,-1.460405E0,-3.4570172E-1,5.5070173E-2,-8.6191885E-2,2.1628417E-2,-2.318861E-2,-9.421131E-2,-1.8279908E-2,-6.9792196E-2,2.4589617E-2,-5.9591155E-2,-6.274925E-3,-7.709318E-2,-4.3633264E-3,5.3584486E-2,-4.1389447E-2],"categories":[],"categories_nodes":[],"categories_segments":[],"categories_sizes":[],"default_left":[0,0,0,0,0,0,0,0,0,0,0,0,0,0,0,0,0,0,0,0,0,0,0,0,0,0,0,0,0],"id":8,"left_children":[1,3,5,7,9,11,13,15,17,-1,19,21,23,25,27,-1,-1,-1,-1,-1,-1,-1,-1,-1,-1,-1,-1,-1,-1],"loss_changes":[4.065035E2,1.7036322E2,5.9294434E1,1.2924628E2,1.3572647E1,4.585106E1,2.0566895E1,4.4532684E1,9.079353E1,0E0,1.5045776E0,2.4988659E1,2.8598038E1,1.7107056E1,1.4799253E1,0E0,0E0,0E0,0E0,0E0,0E0,0E0,0E0,0E0,0E0,0E0,0E0,0E0,0E0],"parents":[2147483647,0,0,1,1,2,2,3,3,4,4,5,5,6,6,7,7,8,8,10,10,11,11,12,12,13,13,14,14],"right_children":[2,4,6,8,10,12,14,16,18,-1,20,22,24,26,28,-1,-1,-1,-1,-1,-1,-1,-1,-1,-1,-1,-1,-1,-1],"split_conditions":[4.2900047E-1,3.5413258E0,-1.7591114E-1,-6.421773E-1,-4.1975203E-1,-6.8550548E-3,2.6983842E-1,9.707494E-2,1.0472313E0,4.1843493E-2,6.328355E-2,-4.1040845E-2,-1.5714751E-1,7.910368E-2,-4.526849E-2,5.5070173E-2,-8.6191885E-2,2.1628417E-2,-2.318861E-2,-9.421131E-2,-1.8279908E-2,-6.9792196E-2,2.4589617E-2,-5.9591155E-2,-6.274925E-3,-7.709318E-2,-4.3633264E-3,5.3584486E-2,-4.1389447E-2],"split_indices":[400,390,386,400,401,118,399,148,391,0,190,331,399,104,295,0,0,0,0,0,0,0,0,0,0,0,0,0,0],"split_type":[0,0,0,0,0,0,0,0,0,0,0,0,0,0,0,0,0,0,0,0,0,0,0,0,0,0,0,0,0],"sum_hessian":[1.2031412E3,8.571109E2,3.4603033E2,8.203354E2,3.677548E1,1.7352605E2,1.7250429E2,2.5625827E2,5.6407715E2,1.4440389E0,3.533144E1,5.639217E1,1.1713387E2,1.5314429E2,1.9360008E1,2.5141139E2,4.8468876E0,4.089849E2,1.5509225E2,3.411331E1,1.218127E0,7.171321E0,4.9220848E1,8.035826E1,3.6775608E1,1.444521E2,8.692182E0,4.603163E0,1.4756845E1],"tree_param":{"num_deleted":"0","num_feature":"404","num_nodes":"29","size_leaf_vector":"1"}},{"base_weights":[-1.6471095E-2,5.0007653E-1,-6.488883E-1,-4.6854496E-2,7.985994E-1,-3.2955882E-1,-1.1526192E0,3.1036016E-1,-1.1973803E0,9.5917207E-1,1.71683E-1,8.214602E-2,-9.7791374E-1,-6.812427E-1,-1.4396217E0,2.5799995E-2,-5.247074E-2,2.193989E-2,-8.14282E-2,5.067314E-2,-1.73102E-2,5.2217424E-2,-1.7328361E-2,1.0279616E-2,-9.779275E-2,-1.3856045E-2,-6.976184E-2,-4.5041027E-3,-5.8127787E-2,-7.0872055E-3,-7.6092586E-2],"categories":[],"categories_nodes":[],"categories_segments":[],"categories_sizes":[],"default_left":[0,0,0,0,0,0,0,0,0,0,0,0,0,0,0,0,0,0,0,0,0,0,0,0,0,0,0,0,0,0,0],"id":9,"left_children":[1,3,5,7,9,11,13,15,17,19,21,23,25,27,29,-1,-1,-1,-1,-1,-1,-1,-1,-1,-1,-1,-1,-1,-1,-1,-1],"loss_changes":[3.91129E2,1.0764058E2,8.620422E1,9.639731E1,4.275882E1,8.839004E1,2.7217896E1,5.0618217E1,3.991311E1,2.4392334E1,4.0234116E1,5.154085E1,3.7213478E1,2.2879734E1,1.3515167E1,0E0,0E0,0E0,0E0,0E0,0E0,0E0,0E0,0E0,0E0,0E0,0E0,0E0,0E0,0E0,0E0],"parents":[2147483647,0,0,1,1,2,2,3,3,4,4,5,5,6,6,7,7,8,8,9,9,10,10,11,11,12,12,13,13,14,14],"right_children":[2,4,6,8,10,12,14,16,18,20,22,24,26,28,30,-1,-1,-1,-1,-1,-1,-1,-1,-1,-1,-1,-1,-1,-1,-1,-1],"split_conditions":[-5.7898507E-2,-3.8039398E-1,1.0132793E0,1.9271983E-2,5.22255E-1,1.1795064E-2,-2.8374395E-1,1.091002E0,-3.380965E-2,1.1567947E-1,-2.765307E-2,4.686815E0,1.8176435E-2,-8.507086E-3,-8.813642E-2,2.5799995E-2,-5.247074E-2,2.193989E-2,-8.14282E-2,5.067314E-2,-1.73102E-2,5.2217424E-2,-1.7328361E-2,1.0279616E-2,-9.779275E-2,-1.3856045E-2,-6.976184E-2,-4.5041027E-3,-5.8127787E-2,-7.0872055E-3,-7.6092586E-2],"split_indices":[400,399,400,274,386,386,386,386,328,78,191,395,174,322,191,0,0,0,0,0,0,0,0,0,0,0,0,0,0,0,0],"split_type":[0,0,0,0,0,0,0,0,0,0,0,0,0,0,0,0,0,0,0,0,0,0,0,0,0,0,0,0,0,0,0],"sum_hessian":[1.195315E3,6.5804456E2,5.372704E2,2.3264786E2,4.253967E2,3.2983365E2,2.0743674E2,1.7808604E2,5.4561813E1,3.3823444E2,8.716225E1,2.0226735E2,1.2756631E2,7.977951E1,1.2765723E2,1.5523088E2,2.2855156E1,1.1376119E1,4.3185696E1,3.2494363E2,1.3290813E1,3.2098103E1,5.5064148E1,1.9156306E2,1.0704283E1,4.8233646E1,7.933266E1,3.6336845E1,4.3442665E1,7.768395E0,1.1988883E2],"tree_param":{"num_deleted":"0","num_feature":"404","num_nodes":"31","size_leaf_vector":"1"}},{"base_weights":[-5.933598E-3,4.8727763E-1,-6.049612E-1,2.0324806E-2,8.745746E-1,-4.602949E-1,-1.8209085E0,-4.790481E-1,6.704472E-1,-5.009251E-1,9.3183607E-1,-2.6160657E-1,-1.2954423E0,-1.4365174E-2,-9.248124E-2,-7.415342E-2,-5.5389362E-3,-7.813672E-2,3.740035E-2,-9.7679526E-2,3.991289E-2,-2.13774E-3,5.075437E-2,1.5092694E-3,-4.184089E-2,6.6448487E-3,-7.073377E-2],"categories":[],"categories_nodes":[],"categories_segments":[],"categories_sizes":[],"default_left":[0,0,0,0,0,0,0,0,0,0,0,0,0,0,0,0,0,0,0,0,0,0,0,0,0,0,0],"id":10,"left_children":[1,3,5,7,9,11,13,15,17,19,21,23,25,-1,-1,-1,-1,-1,-1,-1,-1,-1,-1,-1,-1,-1,-1],"loss_changes":[3.4590958E2,1.1610936E2,9.216048E1,9.5167496E1,2.8110565E1,7.828208E1,1.9292297E0,6.114507E1,2.3223701E1,2.9259697E1,2.7410309E1,6.447698E1,1.5652756E1,0E0,0E0,0E0,0E0,0E0,0E0,0E0,0E0,0E0,0E0,0E0,0E0,0E0,0E0],"parents":[2147483647,0,0,1,1,2,2,3,3,4,4,5,5,6,6,7,7,8,8,9,9,10,10,11,11,12,12],"right_children":[2,4,6,8,10,12,14,16,18,20,22,24,26,-1,-1,-1,-1,-1,-1,-1,-1,-1,-1,-1,-1,-1,-1],"split_conditions":[-5.7898507E-2,-3.579006E-2,3.5413258E0,-1.031631E-1,-7.111166E-2,1.6949378E0,-6.356725E-2,-2.98312E-2,-8.497083E-2,-1.1612261E-2,-3.776924E-2,1.1795064E-2,-9.5532246E-2,-1.4365174E-2,-9.248124E-2,-7.415342E-2,-5.5389362E-3,-7.813672E-2,3.740035E-2,-9.7679526E-2,3.991289E-2,-2.13774E-3,5.075437E-2,1.5092694E-3,-4.184089E-2,6.6448487E-3,-7.073377E-2],"split_indices":[400,244,390,399,321,400,293,113,113,249,350,386,252,0,0,0,0,0,0,0,0,0,0,0,0,0,0],"split_type":[0,0,0,0,0,0,0,0,0,0,0,0,0,0,0,0,0,0,0,0,0,0,0,0,0,0,0],"sum_hessian":[1.1688025E3,6.411205E2,5.27682E2,2.9114627E2,3.499742E2,4.7280856E2,5.4873447E1,1.6481302E2,1.2633326E2,1.3677343E1,3.3629688E2,3.830024E2,8.980613E1,1.2108773E0,5.366257E1,4.341706E1,1.2139596E2,3.5976365E0,1.2273563E2,6.219443E0,7.457901E0,2.6504576E1,3.097923E2,2.5473068E2,1.2827174E2,6.9103017E0,8.289583E1],"tree_param":{"num_deleted":"0","num_feature":"404","num_nodes":"27","size_leaf_vector":"1"}},{"base_weights":[4.382527E-3,6.8178666E-1,-4.4687918E-1,2.2593038E-1,1.0100693E0,-3.1590107E-1,-1.7138579E0,-9.409579E-1,5.4192275E-1,-1.2960818E0,1.0448693E0,-1.4327383E-1,-1.191937E0,1.0094714E-2,-1.7669905E0,3.5807434E-2,-7.2449796E-2,3.8660742E-2,-3.084431E-2,-1.0336858E-1,1.9459879E-2,5.452136E-2,-2.8872192E-2,6.8469467E-3,-4.0453166E-2,-3.1100238E-2,-7.375928E-2,-8.915751E-2,-2.5700754E-2],"categories":[],"categories_nodes":[],"categories_segments":[],"categories_sizes":[],"default_left":[0,0,0,0,0,0,0,0,0,0,0,0,0,0,0,0,0,0,0,0,0,0,0,0,0,0,0,0,0],"id":11,"left_children":[1,3,5,7,9,11,13,15,17,19,21,23,25,-1,27,-1,-1,-1,-1,-1,-1,-1,-1,-1,-1,-1,-1,-1,-1],"loss_changes":[3.5607446E2,6.946666E1,1.1547479E2,7.287777E1,2.30596E1,9.583487E1,7.001129E0,3.655461E1,4.204085E1,6.6108675E0,2.036261E1,9.9263855E1,1.5930939E1,0E0,3.71521E-1,0E0,0E0,0E0,0E0,0E0,0E0,0E0,0E0,0E0,0E0,0E0,0E0,0E0,0E0],"parents":[2147483647,0,0,1,1,2,2,3,3,4,4,5,5,6,6,7,7,8,8,9,9,10,10,11,11,12,12,14,14],"right_children":[2,4,6,8,10,12,14,16,18,20,22,24,26,-1,28,-1,-1,-1,-1,-1,-1,-1,-1,-1,-1,-1,-1,-1,-1],"split_conditions":[-3.500379E-1,-3.8153984E-2,3.5413258E0,-2.98312E-2,-9.560024E-2,1.597558E0,-4.1975203E-1,4.709109E-2,1.091002E0,-8.067685E-2,2.6518745E0,3.6862362E-2,-3.5251117E-1,1.0094714E-2,1.0228228E-1,3.5807434E-2,-7.2449796E-2,3.8660742E-2,-3.084431E-2,-1.0336858E-1,1.9459879E-2,5.452136E-2,-2.8872192E-2,6.8469467E-3,-4.0453166E-2,-3.1100238E-2,-7.375928E-2,-8.915751E-2,-2.5700754E-2],"split_indices":[400,244,390,113,321,400,401,99,386,90,391,67,386,0,292,0,0,0,0,0,0,0,0,0,0,0,0,0,0],"split_type":[0,0,0,0,0,0,0,0,0,0,0,0,0,0,0,0,0,0,0,0,0,0,0,0,0,0,0,0,0],"sum_hessian":[1.1628384E3,4.6472028E2,6.981181E2,1.952636E2,2.694567E2,6.338419E2,6.427618E1,4.118797E1,1.5407562E2,3.4669008E0,2.6598978E2,5.3047314E2,1.0336881E2,1.6590116E0,6.261717E1,9.568388E0,3.1619581E1,1.2871713E2,2.5358496E1,2.222858E0,1.2440428E0,2.5904318E2,6.946596E0,3.7390216E2,1.5657097E2,3.5378593E1,6.799023E1,6.1402134E1,1.2150362E0],"tree_param":{"num_deleted":"0","num_feature":"404","num_nodes":"29","size_leaf_vector":"1"}},{"base_weights":[1.8496051E-3,6.513375E-1,-4.356511E-1,7.158913E-1,-1.8140894E0,-1.4071701E-1,-9.336505E-1,2.3277847E-1,9.6214044E-1,-2.0172336E0,3.2292511E-3,-9.2257215E-3,-8.441653E-2,-4.837943E-1,-1.248139E0,-4.255515E-2,2.893483E-2,5.1592678E-2,-5.2941848E-2,-1.06661014E-1,-2.8325398E-2,2.270437E-2,-2.2431595E-2,-6.703207E-2,-5.9997886E-3,-6.9647305E-2,-9.0200035E-3],"categories":[],"categories_nodes":[],"categories_segments":[],"categories_sizes":[],"default_left":[0,0,0,0,0,0,0,0,0,0,0,0,0,0,0,0,0,0,0,0,0,0,0,0,0,0,0],"id":12,"left_children":[1,3,5,7,9,11,13,15,17,19,-1,21,-1,23,25,-1,-1,-1,-1,-1,-1,-1,-1,-1,-1,-1,-1],"loss_changes":[3.3070007E2,7.584926E1,1.0200629E2,5.416577E1,4.7996674E0,8.909988E1,3.596414E1,5.8860714E1,4.371295E1,6.545601E-1,0E0,8.257948E1,0E0,3.3499565E1,2.3172165E1,0E0,0E0,0E0,0E0,0E0,0E0,0E0,0E0,0E0,0E0,0E0,0E0],"parents":[2147483647,0,0,1,1,2,2,3,3,4,4,5,5,6,6,7,7,8,8,9,9,11,11,13,13,14,14],"right_children":[2,4,6,8,10,12,14,16,18,20,-1,22,-1,24,26,-1,-1,-1,-1,-1,-1,-1,-1,-1,-1,-1,-1],"split_conditions":[-3.500379E-1,4.686815E0,1.0472313E0,-4.698434E-2,4.5575596E-2,3.5413258E0,-7.5095234E-4,-2.98312E-2,2.6518745E0,1.2960238E-2,3.2292511E-3,3.86936E-2,-8.441653E-2,-3.320647E-8,4.6493564E-2,-4.255515E-2,2.893483E-2,5.1592678E-2,-5.2941848E-2,-1.06661014E-1,-2.8325398E-2,2.270437E-2,-2.2431595E-2,-6.703207E-2,-5.9997886E-3,-6.9647305E-2,-9.0200035E-3],"split_indices":[400,395,391,244,75,390,211,113,391,235,0,212,0,319,199,0,0,0,0,0,0,0,0,0,0,0,0],"split_type":[0,0,0,0,0,0,0,0,0,0,0,0,0,0,0,0,0,0,0,0,0,0,0,0,0,0,0],"sum_hessian":[1.1618177E3,4.6742188E2,6.943959E2,4.5618686E2,1.1234993E1,4.369187E2,2.574772E2,1.546758E2,3.0151108E2,1.0072124E1,1.1628693E0,4.036306E2,3.328807E1,1.06983025E2,1.5049417E2,3.706812E1,1.1760769E2,2.9193042E2,9.580635E0,8.890844E0,1.1812793E0,1.9645432E2,2.0717632E2,3.1084717E1,7.589831E1,1.3225337E2,1.8240808E1],"tree_param":{"num_deleted":"0","num_feature":"404","num_nodes":"27","size_leaf_vector":"1"}},{"base_weights":[-7.005014E-3,-2.6390427E-1,8.4045774E-1,-2.2691177E-2,-9.817007E-1,8.8587344E-1,-7.246509E-2,2.7952284E-1,-6.48284E-1,-2.5304335E-1,-1.1337472E0,1.0317345E0,2.6847732E-1,1.8009126E-2,-7.8585945E-2,-6.667467E-2,-1.2675348E-2,-6.0382064E-2,8.593353E-3,-6.905534E-2,-3.2871075E-2,2.4203595E-2,5.6452733E-2,-2.4693599E-2,4.4080235E-2],"categories":[],"categories_nodes":[],"categories_segments":[],"categories_sizes":[],"default_left":[0,0,0,0,0,0,0,0,0,0,0,0,0,0,0,0,0,0,0,0,0,0,0,0,0],"id":13,"left_children":[1,3,5,7,9,11,-1,13,15,17,19,21,23,-1,-1,-1,-1,-1,-1,-1,-1,-1,-1,-1,-1],"loss_changes":[2.5249998E2,1.5406938E2,2.9340027E1,1.26314156E2,2.451065E1,2.3602417E1,0E0,6.7840546E1,5.8526817E1,1.6403479E1,2.0877182E1,1.0866898E1,2.4753342E1,0E0,0E0,0E0,0E0,0E0,0E0,0E0,0E0,0E0,0E0,0E0,0E0],"parents":[2147483647,0,0,1,1,2,2,3,3,4,4,5,5,7,7,8,8,9,9,10,10,11,11,12,12],"right_children":[2,4,6,8,10,12,-1,14,16,18,20,22,24,-1,-1,-1,-1,-1,-1,-1,-1,-1,-1,-1,-1],"split_conditions":[3.1318727E-1,8.1851965E-1,3.5413258E0,8.69683E-3,-1.1916285E-2,1.0472313E0,-7.246509E-2,3.5413258E0,-4.1229907E-2,-7.202045E-3,2.5655719E-2,-2.1600652E-2,-3.4472194E-2,1.8009126E-2,-7.8585945E-2,-6.667467E-2,-1.2675348E-2,-6.0382064E-2,8.593353E-3,-6.905534E-2,-3.2871075E-2,2.4203595E-2,5.6452733E-2,-2.4693599E-2,4.4080235E-2],"split_indices":[399,400,390,274,380,391,0,390,303,76,234,58,18,0,0,0,0,0,0,0,0,0,0,0,0],"split_type":[0,0,0,0,0,0,0,0,0,0,0,0,0,0,0,0,0,0,0,0,0,0,0,0,0],"sum_hessian":[1.1577673E3,8.889732E2,2.687941E2,6.66148E2,2.228252E2,2.6416766E2,4.626453E0,4.49537E2,2.1661104E2,3.892895E1,1.8389624E2,2.1314145E2,5.10262E1,4.3153998E2,1.7997011E1,7.8310555E1,1.3830048E2,1.1423336E1,2.7505615E1,1.1978927E2,6.410698E1,3.3061897E1,1.8007956E2,2.283195E1,2.8194248E1],"tree_param":{"num_deleted":"0","num_feature":"404","num_nodes":"25","size_leaf_vector":"1"}},{"base_weights":[4.032618E-3,4.6595427E-1,-5.239967E-1,-4.380304E-2,7.592815E-1,-4.0436488E-1,-1.5866213E0,-8.0094975E-1,4.6253213E-1,8.435994E-1,-1.1092538E0,-2.0741126E-1,-1.1169623E0,-1.654183E-2,-8.0743544E-2,4.6805862E-2,-5.190277E-2,3.0635828E-2,-3.4127876E-2,-6.2283445E-2,4.4277016E-2,-8.708096E-2,3.8668197E-2,2.242698E-3,-4.464502E-2,-2.8544828E-2,-7.096409E-2],"categories":[],"categories_nodes":[],"categories_segments":[],"categories_sizes":[],"default_left":[0,0,0,0,0,0,0,0,0,0,0,0,0,0,0,0,0,0,0,0,0,0,0,0,0,0,0],"id":14,"left_children":[1,3,5,7,9,11,13,15,17,19,21,23,25,-1,-1,-1,-1,-1,-1,-1,-1,-1,-1,-1,-1,-1,-1],"loss_changes":[2.8154544E2,9.209497E1,6.782938E1,8.6945885E1,6.251674E1,6.790144E1,1.387085E0,3.839634E1,2.3800205E1,3.392392E1,2.195239E1,6.602202E1,1.6506042E1,0E0,0E0,0E0,0E0,0E0,0E0,0E0,0E0,0E0,0E0,0E0,0E0,0E0,0E0],"parents":[2147483647,0,0,1,1,2,2,3,3,4,4,5,5,6,6,7,7,8,8,9,9,10,10,11,11,12,12],"right_children":[2,4,6,8,10,12,14,16,18,20,22,24,26,-1,-1,-1,-1,-1,-1,-1,-1,-1,-1,-1,-1,-1,-1],"split_conditions":[-5.7898507E-2,-4.698434E-2,3.5413258E0,-4.374319E-1,2.6518745E0,1.597558E0,-7.315335E-2,-4.8254732E-2,6.892796E-2,-1.0170961E-1,4.67453E-2,4.4519372E-2,8.344337E-34,-1.654183E-2,-8.0743544E-2,4.6805862E-2,-5.190277E-2,3.0635828E-2,-3.4127876E-2,-6.2283445E-2,4.4277016E-2,-8.708096E-2,3.8668197E-2,2.242698E-3,-4.464502E-2,-2.8544828E-2,-7.096409E-2],"split_indices":[400,244,390,399,391,400,293,328,379,321,238,67,223,0,0,0,0,0,0,0,0,0,0,0,0,0,0],"split_type":[0,0,0,0,0,0,0,0,0,0,0,0,0,0,0,0,0,0,0,0,0,0,0,0,0,0,0],"sum_hessian":[1.1523081E3,6.146916E2,5.376165E2,2.248273E2,3.8986432E2,4.8445624E2,5.3160267E1,8.986544E1,1.3496187E2,3.735561E2,1.6308226E1,3.8056387E2,1.0389235E2,1.4492092E0,5.171106E1,1.0439102E1,7.942634E1,1.1972432E2,1.5237547E1,6.7865524E0,3.6676953E2,1.2263761E1,4.0444646E0,2.7887158E2,1.016923E2,3.805099E1,6.584136E1],"tree_param":{"num_deleted":"0","num_feature":"404","num_nodes":"27","size_leaf_vector":"1"}},{"base_weights":[-1.1128523E-2,5.734096E-1,-3.7824196E-1,6.42935E-1,-1.4430459E0,-6.6603345E-1,8.7197185E-2,3.4864098E-1,1.0249257E0,-8.528761E-3,-7.678162E-2,-3.1681234E-1,-1.067681E0,1.8802372E-1,-1.4605237E0,2.6860554E-2,-3.2405663E-2,5.2789617E-2,-4.8997097E-2,2.9615795E-3,-4.6309114E-2,-7.6275915E-2,-3.728055E-2,1.6161127E-2,-3.5199653E-2,3.4898234E-4,-7.7809475E-2],"categories":[],"categories_nodes":[],"categories_segments":[],"categories_sizes":[],"default_left":[0,0,0,0,0,0,0,0,0,0,0,0,0,0,0,0,0,0,0,0,0,0,0,0,0,0,0],"id":15,"left_children":[1,3,5,7,9,11,13,15,17,-1,-1,19,21,23,25,-1,-1,-1,-1,-1,-1,-1,-1,-1,-1,-1,-1],"loss_changes":[2.4334502E2,6.2257523E1,9.335637E1,4.7259613E1,1.4921532E0,6.0046875E1,4.1941483E1,4.5601845E1,1.2409225E1,0E0,0E0,5.315046E1,2.8324844E1,3.0565948E1,2.3195E0,0E0,0E0,0E0,0E0,0E0,0E0,0E0,0E0,0E0,0E0,0E0,0E0],"parents":[2147483647,0,0,1,1,2,2,3,3,4,4,5,5,6,6,7,7,8,8,11,11,12,12,13,13,14,14],"right_children":[2,4,6,8,10,12,14,16,18,-1,-1,20,22,24,26,-1,-1,-1,-1,-1,-1,-1,-1,-1,-1,-1,-1],"split_conditions":[-3.500379E-1,3.5413258E0,-1.4197542E-1,1.10892735E-1,-5.6496214E-2,4.998747E-2,3.5413258E0,1.091002E0,2.6518745E0,-8.528761E-3,-7.678162E-2,7.2113985E-1,-1.442195E-2,7.517455E-2,-7.3534265E-2,2.6860554E-2,-3.2405663E-2,5.2789617E-2,-4.8997097E-2,2.9615795E-3,-4.6309114E-2,-7.6275915E-2,-3.728055E-2,1.6161127E-2,-3.5199653E-2,3.4898234E-4,-7.7809475E-2],"split_indices":[400,390,399,399,71,212,390,386,391,0,0,400,164,387,338,0,0,0,0,0,0,0,0,0,0,0,0],"split_type":[0,0,0,0,0,0,0,0,0,0,0,0,0,0,0,0,0,0,0,0,0,0,0,0,0,0,0],"sum_hessian":[1.1319795E3,4.364608E2,6.9551874E2,4.2257208E2,1.3888706E1,4.295113E2,2.6600748E2,2.3976476E2,1.8280733E2,1.134802E0,1.2753904E1,2.3070692E2,1.9880437E2,2.5056302E2,1.5444453E1,2.0200891E2,3.7755848E1,1.8050174E2,2.3055818E0,1.432251E2,8.748183E1,8.055504E1,1.1824933E2,2.1813844E2,3.242458E1,1.0019336E0,1.444252E1],"tree_param":{"num_deleted":"0","num_feature":"404","num_nodes":"27","size_leaf_vector":"1"}},{"base_weights":[1.2367118E-2,7.297802E-1,-2.4399956E-1,1.6409837E-1,1.0093509E0,-1.261486E-1,-1.524978E0,4.8040092E-1,-1.1537627E0,-8.5896485E-2,1.0363902E0,-4.071766E-1,3.2882673E-1,5.5280625E-4,-1.5637834E0,-5.6185246E-2,3.61068E-2,-9.519964E-2,2.1939488E-2,-5.0400742E-3,5.452038E-2,-3.383402E-2,7.226173E-3,2.7680377E-2,-1.2557781E-2,-2.248361E-2,-7.8834E-2],"categories":[],"categories_nodes":[],"categories_segments":[],"categories_sizes":[],"default_left":[0,0,0,0,0,0,0,0,0,0,0,0,0,0,0,0,0,0,0,0,0,0,0,0,0,0,0],"id":16,"left_children":[1,3,5,7,9,11,13,15,17,-1,19,21,23,-1,25,-1,-1,-1,-1,-1,-1,-1,-1,-1,-1,-1,-1],"loss_changes":[2.0758643E2,4.6826645E1,1.2534424E2,4.20196E1,1.6430862E1,9.763988E1,4.1878815E0,3.2192345E1,2.4190939E1,0E0,1.2232117E1,7.025648E1,3.817218E1,0E0,2.7166748E-1,0E0,0E0,0E0,0E0,0E0,0E0,0E0,0E0,0E0,0E0,0E0,0E0],"parents":[2147483647,0,0,1,1,2,2,3,3,4,4,5,5,6,6,7,7,8,8,10,10,11,11,12,12,14,14],"right_children":[2,4,6,8,10,12,14,16,18,-1,20,22,24,-1,26,-1,-1,-1,-1,-1,-1,-1,-1,-1,-1,-1,-1],"split_conditions":[-5.447975E-1,-4.7982752E-2,3.5413258E0,7.830633E-2,-1.0170961E-1,-1.1163124E-1,-4.1975203E-1,-4.8106924E-2,-1.4056527E-2,-8.5896485E-2,-7.561568E-2,-2.1007344E-2,3.8356565E-2,5.5280625E-4,-9.212938E-2,-5.6185246E-2,3.61068E-2,-9.519964E-2,2.1939488E-2,-5.0400742E-3,5.452038E-2,-3.383402E-2,7.226173E-3,2.7680377E-2,-1.2557781E-2,-2.248361E-2,-7.8834E-2],"split_indices":[400,244,390,272,321,399,401,113,246,0,190,244,67,0,246,0,0,0,0,0,0,0,0,0,0,0,0],"split_type":[0,0,0,0,0,0,0,0,0,0,0,0,0,0,0,0,0,0,0,0,0,0,0,0,0,0,0],"sum_hessian":[1.1267047E3,2.9614102E2,8.3056366E2,9.847475E1,1.9766628E2,7.6159485E2,6.896881E1,7.992681E1,1.8547932E1,1.3265963E0,1.9633968E2,4.708602E2,2.9073468E2,1.7170725E0,6.725174E1,9.989562E0,6.993725E1,1.2475385E1,6.0725465E0,8.864085E0,1.874756E2,3.1618045E2,1.5467975E2,2.0956148E2,8.1173195E1,1.1800138E0,6.6071724E1],"tree_param":{"num_deleted":"0","num_feature":"404","num_nodes":"27","size_leaf_vector":"1"}},{"base_weights":[3.8933656E-3,4.9472433E-1,-3.7042323E-1,7.0985085E-1,-2.4028529E-1,1.2659664E-1,-6.3199806E-1,1.0623322E0,3.8104698E-1,-1.2761104E0,1.9644143E-1,3.7877738E-1,-5.838201E-1,-2.1527016E-1,-9.17051E-1,5.8019716E-2,-1.0104416E-3,-2.8006373E-2,3.357517E-2,-9.1566E-2,2.9344467E-2,2.4749327E-2,-5.4787677E-2,2.7483774E-2,-3.9627273E-2,2.188108E-2,-4.9698517E-2,4.9667964E-3,-4.520713E-2,-4.995775E-2,2.5408557E-2],"categories":[],"categories_nodes":[],"categories_segments":[],"categories_sizes":[],"default_left":[0,0,0,0,0,0,0,0,0,0,0,0,0,0,0,0,0,0,0,0,0,0,0,0,0,0,0,0,0,0,0],"id":17,"left_children":[1,3,5,7,9,11,13,15,17,19,21,23,25,27,29,-1,-1,-1,-1,-1,-1,-1,-1,-1,-1,-1,-1,-1,-1,-1,-1],"loss_changes":[2.0388594E2,7.608931E1,8.193249E1,4.2671463E1,4.976615E1,3.9263573E1,4.882335E1,1.9006348E1,5.337059E1,3.4790665E1,3.0579573E1,3.2752464E1,2.451842E1,3.67002E1,2.9146576E1,0E0,0E0,0E0,0E0,0E0,0E0,0E0,0E0,0E0,0E0,0E0,0E0,0E0,0E0,0E0,0E0],"parents":[2147483647,0,0,1,1,2,2,3,3,4,4,5,5,6,6,7,7,8,8,9,9,10,10,11,11,12,12,13,13,14,14],"right_children":[2,4,6,8,10,12,14,16,18,20,22,24,26,28,30,-1,-1,-1,-1,-1,-1,-1,-1,-1,-1,-1,-1,-1,-1,-1,-1],"split_conditions":[-4.7546217E-1,2.4001798E-2,-3.444956E-2,-5.447975E-1,5.1189166E-1,5.4174535E-2,-4.1975203E-1,7.356831E-2,-4.854786E-2,4.5268223E-2,1.0221738E-2,1.6949378E0,-2.2914864E-2,3.3752847E-2,6.37225E-2,5.8019716E-2,-1.0104416E-3,-2.8006373E-2,3.357517E-2,-9.1566E-2,2.9344467E-2,2.4749327E-2,-5.4787677E-2,2.7483774E-2,-3.9627273E-2,2.188108E-2,-4.9698517E-2,4.9667964E-3,-4.520713E-2,-4.995775E-2,2.5408557E-2],"split_indices":[386,274,274,400,402,131,401,164,303,146,17,400,203,65,58,0,0,0,0,0,0,0,0,0,0,0,0,0,0,0,0],"split_type":[0,0,0,0,0,0,0,0,0,0,0,0,0,0,0,0,0,0,0,0,0,0,0,0,0,0,0,0,0,0,0],"sum_hessian":[1.1077299E3,4.791336E2,6.285963E2,3.7067633E2,1.0845728E2,2.1692735E2,4.116689E2,1.778202E2,1.9285611E2,3.1596043E1,7.6861244E1,1.6044138E2,5.6485977E1,1.6792674E2,2.4374217E2,1.6298433E2,1.4835872E1,4.526244E1,1.4759367E2,2.435484E1,7.241202E0,6.2937325E1,1.3923922E1,1.4047635E2,1.9965025E1,1.616401E1,4.0321968E1,1.158666E2,5.206015E1,2.3074821E2,1.2993959E1],"tree_param":{"num_deleted":"0","num_feature":"404","num_nodes":"31","size_leaf_vector":"1"}},{"base_weights":[-1.7035026E-2,3.8266757E-1,-4.6263197E-1,9.8933324E-2,8.695579E-1,-2.3087871E-1,-9.179584E-1,2.9849273E-1,-8.445028E-1,9.018068E-1,-8.006385E-2,-1.6537989E-2,-9.9633294E-1,-1.1228992E0,6.680636E-2,1.8637648E-2,-8.92097E-2,-7.958934E-2,-1.2869566E-2,4.7214027E-2,-5.0047167E-2,4.448892E-3,-7.837612E-2,-6.72118E-2,-1.8263727E-2,-5.083322E-3,-6.284234E-2,-1.8004434E-2,4.9299367E-2],"categories":[],"categories_nodes":[],"categories_segments":[],"categories_sizes":[],"default_left":[0,0,0,0,0,0,0,0,0,0,0,0,0,0,0,0,0,0,0,0,0,0,0,0,0,0,0,0,0],"id":18,"left_children":[1,3,5,7,9,11,13,15,17,19,-1,21,23,25,27,-1,-1,-1,-1,-1,-1,-1,-1,-1,-1,-1,-1,-1,-1],"loss_changes":[1.9842747E2,8.105011E1,5.5376358E1,7.032707E1,1.8664337E1,5.747895E1,3.586754E1,4.8293842E1,2.8215847E1,1.8237503E1,0E0,4.5110054E1,1.6336143E1,1.996083E1,1.2713282E1,0E0,0E0,0E0,0E0,0E0,0E0,0E0,0E0,0E0,0E0,0E0,0E0,0E0,0E0],"parents":[2147483647,0,0,1,1,2,2,3,3,4,4,5,5,6,6,7,7,8,8,9,9,11,11,12,12,13,13,14,14],"right_children":[2,4,6,8,10,12,14,16,18,20,-1,22,24,26,28,-1,-1,-1,-1,-1,-1,-1,-1,-1,-1,-1,-1,-1,-1],"split_conditions":[-5.7898507E-2,1.2645386E-1,1.1795064E-2,3.0172335E-2,9.386647E-2,1.6949378E0,4.2313494E-2,4.686815E0,-4.7247484E-2,2.6518745E0,-8.006385E-2,4.686815E0,-2.2474425E-2,-4.13251E-2,1.1992482E-3,1.8637648E-2,-8.92097E-2,-7.958934E-2,-1.2869566E-2,4.7214027E-2,-5.0047167E-2,4.448892E-3,-7.837612E-2,-6.72118E-2,-1.8263727E-2,-5.083322E-3,-6.284234E-2,-1.8004434E-2,4.9299367E-2],"split_indices":[400,399,386,274,285,400,383,395,383,391,0,395,355,67,277,0,0,0,0,0,0,0,0,0,0,0,0,0,0],"split_type":[0,0,0,0,0,0,0,0,0,0,0,0,0,0,0,0,0,0,0,0,0,0,0,0,0,0,0,0,0],"sum_hessian":[1.112102E3,5.863154E2,5.2578656E2,3.712017E2,2.1511377E2,3.494365E2,1.7635007E2,3.069566E2,6.424509E1,2.1296916E2,2.1446154E0,2.737916E2,7.564488E1,1.4585559E2,3.0494484E1,2.9718134E2,9.775262E0,2.7513847E1,3.673124E1,2.0881172E2,4.1574287E0,2.572342E2,1.6557402E1,4.803373E1,2.7611158E1,1.7116488E1,1.287391E2,2.12388E1,9.255682E0],"tree_param":{"num_deleted":"0","num_feature":"404","num_nodes":"29","size_leaf_vector":"1"}},{"base_weights":[-1.028378E-2,2.5892025E-1,-6.14188E-1,5.398742E-1,-3.0594403E-1,-3.2462057E-1,-9.8072064E-1,7.9286337E-1,5.1405183E-3,-1.3196924E0,-5.02229E-2,3.349053E-1,-5.7789546E-1,-1.1379155E0,-1.5063956E-1,4.1644905E-2,-5.9279826E-2,-5.016733E-2,1.9072665E-2,-9.343328E-2,4.5472286E-3,-2.815925E-2,2.2415597E-2,-1.4386916E-3,5.7121463E-2,-3.3511363E-3,-4.6404656E-2,-9.068042E-3,-6.191454E-2,3.8986113E-2,-5.790189E-2],"categories":[],"categories_nodes":[],"categories_segments":[],"categories_sizes":[],"default_left":[0,0,0,0,0,0,0,0,0,0,0,0,0,0,0,0,0,0,0,0,0,0,0,0,0,0,0,0,0,0,0],"id":19,"left_children":[1,3,5,7,9,11,13,15,17,19,21,23,25,27,29,-1,-1,-1,-1,-1,-1,-1,-1,-1,-1,-1,-1,-1,-1,-1,-1],"loss_changes":[1.7895879E2,1.2100165E2,3.570404E1,6.8834854E1,6.566442E1,3.2115337E1,1.9309647E1,2.8347351E1,6.2786236E1,3.9692566E1,5.22981E1,1.5791122E1,2.470618E1,1.181311E1,2.4262732E1,0E0,0E0,0E0,0E0,0E0,0E0,0E0,0E0,0E0,0E0,0E0,0E0,0E0,0E0,0E0,0E0],"parents":[2147483647,0,0,1,1,2,2,3,3,4,4,5,5,6,6,7,7,8,8,9,9,10,10,11,11,12,12,13,13,14,14],"right_children":[2,4,6,8,10,12,14,16,18,20,22,24,26,28,30,-1,-1,-1,-1,-1,-1,-1,-1,-1,-1,-1,-1,-1,-1,-1,-1],"split_conditions":[4.2900047E-1,1.4433184E-1,1.0472313E0,6.8981517E-3,-5.6573793E-2,-4.0309153E-2,4.318857E-2,3.5413258E0,5.1189166E-1,-2.3358993E-2,-2.580332E-2,1.5290703E-2,9.890614E-3,-4.753901E-2,1.455735E-2,4.1644905E-2,-5.9279826E-2,-5.016733E-2,1.9072665E-2,-9.343328E-2,4.5472286E-3,-2.815925E-2,2.2415597E-2,-1.4386916E-3,5.7121463E-2,-3.3511363E-3,-4.6404656E-2,-9.068042E-3,-6.191454E-2,3.8986113E-2,-5.790189E-2],"split_indices":[400,386,391,274,190,328,383,390,402,244,340,58,118,102,288,0,0,0,0,0,0,0,0,0,0,0,0,0,0,0,0],"split_type":[0,0,0,0,0,0,0,0,0,0,0,0,0,0,0,0,0,0,0,0,0,0,0,0,0,0,0,0,0,0,0],"sum_hessian":[1.0988092E3,7.604103E2,3.383989E2,5.0785565E2,2.525546E2,1.9010118E2,1.4829773E2,3.444224E2,1.6343326E2,5.0036316E1,2.0251828E2,5.2657963E1,1.3744322E2,1.2437383E2,2.3923887E1,3.381587E2,6.263719E0,4.395941E1,1.1947385E2,3.5785202E1,1.4251116E1,9.975094E1,1.0276734E2,3.6971657E1,1.5686308E1,5.6382744E1,8.106048E1,1.2078183E1,1.12295654E2,1.255499E1,1.1368897E1],"tree_param":{"num_deleted":"0","num_feature":"404","num_nodes":"31","size_leaf_vector":"1"}},{"base_weights":[-2.1008972E-2,4.3040317E-1,-3.571434E-1,5.1521236E-1,-1.7199795E0,-6.9998E-1,2.3259344E-2,7.5876665E-1,-1.7127366E-1,-8.8897265E-2,-2.2247996E-2,-1.9315115E-1,-1.037708E0,-3.2163718E-1,5.832242E-1,-2.6503319E-2,4.3267515E-2,2.9076597E-2,-3.5933163E-2,1.1944546E-2,-5.404954E-2,-3.21944E-2,-6.686666E-2,-1.0530061E-2,-7.055762E-2,-9.887324E-4,4.4986375E-2],"categories":[],"categories_nodes":[],"categories_segments":[],"categories_sizes":[],"default_left":[0,0,0,0,0,0,0,0,0,0,0,0,0,0,0,0,0,0,0,0,0,0,0,0,0,0,0],"id":20,"left_children":[1,3,5,7,9,11,13,15,17,-1,-1,19,21,23,25,-1,-1,-1,-1,-1,-1,-1,-1,-1,-1,-1,-1],"loss_changes":[1.6578015E2,8.593361E1,8.1684E1,7.52707E1,5.336571E-1,5.6183075E1,5.7703495E1,4.605252E1,4.9251835E1,0E0,0E0,5.125641E1,2.24375E1,2.2076118E1,2.1749695E1,0E0,0E0,0E0,0E0,0E0,0E0,0E0,0E0,0E0,0E0,0E0,0E0],"parents":[2147483647,0,0,1,1,2,2,3,3,4,4,5,5,6,6,7,7,8,8,11,11,12,12,13,13,14,14],"right_children":[2,4,6,8,10,12,14,16,18,-1,-1,20,22,24,26,-1,-1,-1,-1,-1,-1,-1,-1,-1,-1,-1,-1],"split_conditions":[-4.7546217E-1,4.686815E0,-2.1736259E-3,1.0472313E0,6.0803693E-2,6.6534597E-3,-2.6101882E-8,-6.007675E-2,1.6408889E-3,-8.8897265E-2,-2.2247996E-2,1.0472313E0,-2.6400177E-2,3.5413258E0,-1.705824E-3,-2.6503319E-2,4.3267515E-2,2.9076597E-2,-3.5933163E-2,1.1944546E-2,-5.404954E-2,-3.21944E-2,-6.686666E-2,-1.0530061E-2,-7.055762E-2,-9.887324E-4,4.4986375E-2],"split_indices":[386,395,383,391,214,171,319,321,19,0,0,391,221,390,132,0,0,0,0,0,0,0,0,0,0,0,0],"split_type":[0,0,0,0,0,0,0,0,0,0,0,0,0,0,0,0,0,0,0,0,0,0,0,0,0,0,0],"sum_hessian":[1.0905494E3,4.6534003E2,6.252094E2,4.4841534E2,1.6924696E1,3.284E2,2.9680942E2,3.3090884E2,1.1750648E2,1.5811421E1,1.1132743E0,1.3195174E2,1.9644824E2,1.8394107E2,1.1286835E2,2.4971745E1,3.059371E2,4.944464E1,6.806184E1,8.925112E1,4.270061E1,8.6242355E1,1.1020589E2,1.6801175E2,1.5929313E1,3.9173298E1,7.3695045E1],"tree_param":{"num_deleted":"0","num_feature":"404","num_nodes":"27","size_leaf_vector":"1"}},{"base_weights":[1.5879702E-2,1.1220723E-1,-1.3777108E0,3.454617E-1,-4.450518E-1,-1.0823177E-1,-1.4139769E0,4.0072176E-1,-1.7749269E0,-8.536144E-1,-3.635118E-2,-1.3883933E-2,5.7389224E-3,-1.5935585E-2,-1.4352428E0,1.5863252E-5,3.120926E-2,1.888009E-2,-9.687954E-2,-5.2842606E-2,2.2581818E-2,-3.0054575E-2,1.634068E-2,-7.2585516E-2,-3.032442E-2],"categories":[],"categories_nodes":[],"categories_segments":[],"categories_sizes":[],"default_left":[0,0,0,0,0,0,0,0,0,0,0,0,0,0,0,0,0,0,0,0,0,0,0,0,0],"id":21,"left_children":[1,3,5,7,9,11,13,15,17,19,21,-1,-1,-1,23,-1,-1,-1,-1,-1,-1,-1,-1,-1,-1],"loss_changes":[1.4497188E2,1.3143193E2,3.061493E0,8.419915E1,4.980305E1,1.4607316E-1,1.1217651E0,6.2206703E1,7.1327744E0,4.0057213E1,3.1009977E1,0E0,0E0,0E0,2.3330688E-2,0E0,0E0,0E0,0E0,0E0,0E0,0E0,0E0,0E0,0E0],"parents":[2147483647,0,0,1,1,2,2,3,3,4,4,5,5,6,6,7,7,8,8,9,9,10,10,14,14],"right_children":[2,4,6,8,10,12,14,16,18,20,22,-1,-1,-1,24,-1,-1,-1,-1,-1,-1,-1,-1,-1,-1],"split_conditions":[3.5413258E0,1.0472313E0,-5.5547334E-2,4.686815E0,-7.448141E-3,2.3045778E-2,-8.344141E-2,-2.6858064E-8,-6.975248E-2,9.203055E-2,-1.9146152E-2,-1.3883933E-2,5.7389224E-3,-1.5935585E-2,6.808072E-2,1.5863252E-5,3.120926E-2,1.888009E-2,-9.687954E-2,-5.2842606E-2,2.2581818E-2,-3.0054575E-2,1.634068E-2,-7.2585516E-2,-3.032442E-2],"split_indices":[390,391,135,395,383,21,328,319,202,238,277,0,0,0,39,0,0,0,0,0,0,0,0,0,0],"split_type":[0,0,0,0,0,0,0,0,0,0,0,0,0,0,0,0,0,0,0,0,0,0,0,0,0],"sum_hessian":[1.0777849E3,1.008963E3,6.8821884E1,7.115192E2,2.974438E2,2.0221355E0,6.679974E1,6.942375E2,1.7281713E1,1.4820262E2,1.4924118E2,1.0097624E0,1.0123732E0,1.5767891E0,6.522295E1,2.4902782E2,4.452097E2,1.1213636E0,1.6160349E1,1.2840004E2,1.9802584E1,5.815381E1,9.1087364E1,6.3215187E1,2.0077686E0],"tree_param":{"num_deleted":"0","num_feature":"404","num_nodes":"25","size_leaf_vector":"1"}},{"base_weights":[1.602062E-2,5.3214943E-1,-2.8407001E-1,-3.4625392E-2,7.707997E-1,-5.5455893E-1,8.417656E-2,-1.1223049E0,3.458889E-1,8.16697E-1,-1.2633791E0,-2.683793E-1,-1.020176E0,1.7752853E-1,-1.2981735E0,5.879401E-3,-8.475329E-2,-4.20393E-2,2.9232716E-2,4.585359E-2,1.1481801E-2,-8.929994E-2,1.8756611E-2,8.821644E-3,-3.520437E-2,-4.096762E-4,-6.0434874E-2,2.07519E-2,-1.7258514E-2,-6.874981E-2,-1.7484913E-3],"categories":[],"categories_nodes":[],"categories_segments":[],"categories_sizes":[],"default_left":[0,0,0,0,0,0,0,0,0,0,0,0,0,0,0,0,0,0,0,0,0,0,0,0,0,0,0,0,0,0,0],"id":22,"left_children":[1,3,5,7,9,11,13,15,17,19,21,23,25,27,29,-1,-1,-1,-1,-1,-1,-1,-1,-1,-1,-1,-1,-1,-1,-1,-1],"loss_changes":[1.6598709E2,5.331965E1,6.755005E1,4.910196E1,2.6921478E1,5.180597E1,3.7377064E1,2.2029938E1,2.5414051E1,1.5804855E1,6.2457447E0,4.730119E1,2.8305984E1,3.3728134E1,1.730711E0,0E0,0E0,0E0,0E0,0E0,0E0,0E0,0E0,0E0,0E0,0E0,0E0,0E0,0E0,0E0,0E0],"parents":[2147483647,0,0,1,1,2,2,3,3,4,4,5,5,6,6,7,7,8,8,9,9,10,10,11,11,12,12,13,13,14,14],"right_children":[2,4,6,8,10,12,14,16,18,20,22,24,26,28,30,-1,-1,-1,-1,-1,-1,-1,-1,-1,-1,-1,-1,-1,-1,-1,-1],"split_conditions":[-3.500379E-1,-3.7756726E-2,-1.9254905E-1,-2.4859702E-2,4.686815E0,6.251947E-3,3.5413258E0,1.5429256E-2,-6.984633E-2,1.091002E0,3.0582188E-2,2.9742649E-2,-2.0090418E-2,3.1789273E-2,8.7951444E-2,5.879401E-3,-8.475329E-2,-4.20393E-2,2.9232716E-2,4.585359E-2,1.1481801E-2,-8.929994E-2,1.8756611E-2,8.821644E-3,-3.520437E-2,-4.096762E-4,-6.0434874E-2,2.07519E-2,-1.7258514E-2,-6.874981E-2,-1.7484913E-3],"split_indices":[400,383,399,113,395,274,390,171,340,386,92,174,212,330,316,0,0,0,0,0,0,0,0,0,0,0,0,0,0,0,0],"split_type":[0,0,0,0,0,0,0,0,0,0,0,0,0,0,0,0,0,0,0,0,0,0,0,0,0,0,0,0,0,0,0],"sum_hessian":[1.0697007E3,3.9300107E2,6.7669965E2,1.16700905E2,2.7630017E2,3.8984216E2,2.8685748E2,2.974033E1,8.696057E1,2.7078885E2,5.511317E0,2.4242082E2,1.4742136E2,2.695275E2,1.7329983E1,9.648432E0,2.0091898E1,1.4143809E1,7.2816765E1,2.3077002E2,4.001884E1,4.1102867E0,1.4010301E0,1.2025161E2,1.22169205E2,2.331421E1,1.2410714E2,1.8546152E2,8.4065994E1,1.6253042E1,1.0769403E0],"tree_param":{"num_deleted":"0","num_feature":"404","num_nodes":"31","size_leaf_vector":"1"}},{"base_weights":[6.1386824E-3,-1.9632387E-1,7.2478485E-1,-1.1417918E-1,-1.5050678E0,7.7288616E-1,-6.1602037E-2,-1.04372995E-2,-1.1871895E0,4.2052507E-2,-1.5783309E0,9.2612475E-1,1.8083265E-1,2.1021737E-2,-1.436504E-2,-6.7239925E-2,1.720964E-2,-8.105516E-2,-1.2670877E-2,5.625352E-2,3.2694377E-2,5.138562E-2,-1.646295E-2],"categories":[],"categories_nodes":[],"categories_segments":[],"categories_sizes":[],"default_left":[0,0,0,0,0,0,0,0,0,0,0,0,0,0,0,0,0,0,0,0,0,0,0],"id":23,"left_children":[1,3,5,7,9,11,-1,13,15,-1,17,19,21,-1,-1,-1,-1,-1,-1,-1,-1,-1,-1],"loss_changes":[1.5619275E2,8.987155E1,2.3161812E1,8.783601E1,9.815697E0,2.0781921E1,0E0,8.608491E1,1.7253014E1,0E0,2.3226929E0,9.185974E0,2.138464E1,0E0,0E0,0E0,0E0,0E0,0E0,0E0,0E0,0E0,0E0],"parents":[2147483647,0,0,1,1,2,2,3,3,4,4,5,5,7,7,8,8,10,10,11,11,12,12],"right_children":[2,4,6,8,10,12,-1,14,16,-1,18,20,22,-1,-1,-1,-1,-1,-1,-1,-1,-1,-1],"split_conditions":[2.6983842E-1,4.686815E0,3.5413258E0,2.6518745E0,-9.613913E-2,1.0472313E0,-6.1602037E-2,-4.7546217E-1,3.775566E-2,4.2052507E-2,5.8619913E-2,-4.255763E-1,-2.4996243E-2,2.1021737E-2,-1.436504E-2,-6.7239925E-2,1.720964E-2,-8.105516E-2,-1.2670877E-2,5.625352E-2,3.2694377E-2,5.138562E-2,-1.646295E-2],"split_indices":[399,395,390,391,9,391,0,386,200,0,108,386,343,0,0,0,0,0,0,0,0,0,0],"split_type":[0,0,0,0,0,0,0,0,0,0,0,0,0,0,0,0,0,0,0,0,0,0,0],"sum_hessian":[1.0715197E3,8.365634E2,2.3495628E2,7.881797E2,4.8383682E1,2.2990984E2,5.0464478E0,7.1961487E2,6.856481E1,1.1477922E0,4.723589E1,1.8219011E2,4.771973E1,2.813078E2,4.383071E2,6.2277126E1,6.2876844E0,4.55421E1,1.6937909E0,1.0345474E2,7.873536E1,1.7556608E1,3.016312E1],"tree_param":{"num_deleted":"0","num_feature":"404","num_nodes":"23","size_leaf_vector":"1"}},{"base_weights":[1.4035255E-2,4.9036238E-1,-2.4906798E-1,-2.7253557E-2,7.9648226E-1,-1.5978362E-1,-1.3067243E0,-9.081901E-1,2.8981102E-1,-1.4209692E0,8.4764653E-1,2.0149228E-1,-4.3219408E-1,4.497364E-3,-1.3541585E0,-6.513629E-2,2.7221093E-2,-6.325396E-2,2.6085323E-2,-1.0062354E-1,1.0047985E-2,4.5509648E-2,-3.7347592E-2,-8.391428E-3,3.0498544E-2,6.3637123E-3,-3.2028582E-2,-1.09841395E-2,-6.8625316E-2],"categories":[],"categories_nodes":[],"categories_segments":[],"categories_sizes":[],"default_left":[0,0,0,0,0,0,0,0,0,0,0,0,0,0,0,0,0,0,0,0,0,0,0,0,0,0,0,0,0],"id":24,"left_children":[1,3,5,7,9,11,13,15,17,19,21,23,25,-1,27,-1,-1,-1,-1,-1,-1,-1,-1,-1,-1,-1,-1,-1,-1],"loss_changes":[1.3245238E2,5.9607803E1,6.408646E1,3.9567146E1,2.8017578E1,6.199022E1,3.6239777E0,2.2191595E1,3.824317E1,5.876403E0,2.3781876E1,4.0997017E1,4.1924805E1,0E0,7.6397705E-1,0E0,0E0,0E0,0E0,0E0,0E0,0E0,0E0,0E0,0E0,0E0,0E0,0E0,0E0],"parents":[2147483647,0,0,1,1,2,2,3,3,4,4,5,5,6,6,7,7,8,8,9,9,10,10,11,11,12,12,14,14],"right_children":[2,4,6,8,10,12,14,16,18,20,22,24,26,-1,28,-1,-1,-1,-1,-1,-1,-1,-1,-1,-1,-1,-1,-1,-1],"split_conditions":[-3.500379E-1,-4.698434E-2,3.5413258E0,-2.98312E-2,-1.0170961E-1,3.6638135E-3,-4.1975203E-1,5.246944E-2,-4.9703106E-2,-2.2904893E-2,2.6518745E0,2.8357385E-2,-1.6758068E-2,4.497364E-3,-1.086844E-1,-6.513629E-2,2.7221093E-2,-6.325396E-2,2.6085323E-2,-1.0062354E-1,1.0047985E-2,4.5509648E-2,-3.7347592E-2,-8.391428E-3,3.0498544E-2,6.3637123E-3,-3.2028582E-2,-1.09841395E-2,-6.8625316E-2],"split_indices":[400,244,390,113,321,118,401,76,320,28,391,132,343,0,286,0,0,0,0,0,0,0,0,0,0,0,0,0,0],"split_type":[0,0,0,0,0,0,0,0,0,0,0,0,0,0,0,0,0,0,0,0,0,0,0,0,0,0,0,0,0],"sum_hessian":[1.0549117E3,3.750501E2,6.798617E2,1.3971611E2,2.3533401E2,6.2799884E2,5.1862823E1,3.6484024E1,1.03232086E2,4.703699E0,2.3063031E2,2.7007742E2,3.5792142E2,1.6740899E0,5.0188732E1,2.8772478E1,7.711546E0,1.2819595E1,9.041249E1,3.2702742E0,1.4334251E0,2.2233852E2,8.291793E0,1.4214653E2,1.2793089E2,9.723811E1,2.6068332E2,1.0052547E0,4.918348E1],"tree_param":{"num_deleted":"0","num_feature":"404","num_nodes":"29","size_leaf_vector":"1"}},{"base_weights":[5.8855456E-3,-1.9393128E-1,6.5038556E-1,-4.512895E-1,2.4925688E-1,7.07971E-1,-6.134162E-2,-1.6025452E-1,-8.617653E-1,3.751904E-1,-1.1380491E0,8.626682E-1,1.3782986E-1,-1.6058639E-2,3.7954625E-2,-5.5990696E-2,-1.6569374E-2,-2.7827023E-2,2.5644759E-2,5.5549773E-3,-7.9188935E-2,-5.5848947E-3,4.633273E-2,-3.0474458E-2,3.2442316E-2],"categories":[],"categories_nodes":[],"categories_segments":[],"categories_sizes":[],"default_left":[0,0,0,0,0,0,0,0,0,0,0,0,0,0,0,0,0,0,0,0,0,0,0,0,0],"id":25,"left_children":[1,3,5,7,9,11,-1,13,15,17,19,21,23,-1,-1,-1,-1,-1,-1,-1,-1,-1,-1,-1,-1],"loss_changes":[1.3489853E2,9.131529E1,2.766655E1,6.033628E1,5.1860725E1,2.1150787E1,0E0,4.424596E1,2.8340927E1,3.5010822E1,1.3955242E1,1.1917923E1,2.0505234E1,0E0,0E0,0E0,0E0,0E0,0E0,0E0,0E0,0E0,0E0,0E0,0E0],"parents":[2147483647,0,0,1,1,2,2,3,3,4,4,5,5,7,7,8,8,9,9,10,10,11,11,12,12],"right_children":[2,4,6,8,10,12,-1,14,16,18,20,22,24,-1,-1,-1,-1,-1,-1,-1,-1,-1,-1,-1,-1],"split_conditions":[2.264896E-1,2.8983662E-2,3.5413258E0,6.8981517E-3,2.6518745E0,1.0472313E0,-6.134162E-2,9.9319555E-2,-2.699588E-3,-3.6756E-2,-3.3738103E-2,-7.1607806E-2,-1.3748087E-2,-1.6058639E-2,3.7954625E-2,-5.5990696E-2,-1.6569374E-2,-2.7827023E-2,2.5644759E-2,5.5549773E-3,-7.9188935E-2,-5.5848947E-3,4.633273E-2,-3.0474458E-2,3.2442316E-2],"split_indices":[399,234,390,274,391,391,0,99,303,254,322,84,302,0,0,0,0,0,0,0,0,0,0,0,0],"split_type":[0,0,0,0,0,0,0,0,0,0,0,0,0,0,0,0,0,0,0,0,0,0,0,0,0],"sum_hessian":[1.0455161E3,7.9861694E2,2.468992E2,5.052192E2,2.9339777E2,2.4015508E2,6.7441173E0,2.9643304E2,2.0878615E2,2.696497E2,2.3748055E1,1.8849687E2,5.1658215E1,2.5282957E2,4.3603474E1,1.3970372E2,6.9082436E1,3.4329517E1,2.3532019E2,6.4428463E0,1.7305208E1,1.1569794E1,1.7692708E2,2.090041E1,3.0757805E1],"tree_param":{"num_deleted":"0","num_feature":"404","num_nodes":"25","size_leaf_vector":"1"}},{"base_weights":[-9.505855E-3,8.9416826E-1,-1.416589E-1,1.0327296E0,-1.234649E0,9.51824E-2,-6.101912E-1,-2.562992E-1,1.0906659E0,3.8241968E-2,-9.7077034E-2,-3.5727686E-1,3.7919292E-1,5.4858565E-1,-7.1219504E-1,4.2265795E-2,-6.602634E-2,5.6020435E-2,-1.877899E-2,9.771972E-4,-4.718542E-2,2.3024442E-2,-6.9179885E-2,4.5935996E-2,-3.7091978E-2,-4.7336586E-2,-1.2391896E-2],"categories":[],"categories_nodes":[],"categories_segments":[],"categories_sizes":[],"default_left":[0,0,0,0,0,0,0,0,0,0,0,0,0,0,0,0,0,0,0,0,0,0,0,0,0,0,0],"id":26,"left_children":[1,3,5,7,9,11,13,15,17,-1,-1,19,21,23,25,-1,-1,-1,-1,-1,-1,-1,-1,-1,-1,-1,-1],"loss_changes":[1.2427988E2,4.0439056E1,1.0079846E2,9.629868E0,1.3596972E1,7.773579E1,3.643638E1,8.379084E0,5.6543427E0,0E0,0E0,5.1593582E1,5.3873814E1,1.2735704E1,3.0338058E1,0E0,0E0,0E0,0E0,0E0,0E0,0E0,0E0,0E0,0E0,0E0,0E0],"parents":[2147483647,0,0,1,1,2,2,3,3,4,4,5,5,6,6,7,7,8,8,11,11,12,12,13,13,14,14],"right_children":[2,4,6,8,10,12,14,16,18,-1,-1,20,22,24,26,-1,-1,-1,-1,-1,-1,-1,-1,-1,-1,-1,-1],"split_conditions":[-7.395571E-1,8.47133E-2,1.0472313E0,-1.0298053E-1,-4.7546217E-1,-3.845171E-2,-6.937195E-2,3.4510273E-2,4.887716E-2,3.8241968E-2,-9.7077034E-2,1.8270466E-2,4.686815E0,3.93416E-2,4.6155914E-3,4.2265795E-2,-6.602634E-2,5.6020435E-2,-1.877899E-2,9.771972E-4,-4.718542E-2,2.3024442E-2,-6.9179885E-2,4.5935996E-2,-3.7091978E-2,-4.7336586E-2,-1.2391896E-2],"split_indices":[400,121,391,88,386,303,65,35,17,0,0,67,395,57,277,0,0,0,0,0,0,0,0,0,0,0,0],"split_type":[0,0,0,0,0,0,0,0,0,0,0,0,0,0,0,0,0,0,0,0,0,0,0,0,0,0,0],"sum_hessian":[1.0386063E3,1.3177196E2,9.0683435E2,1.2420268E2,7.5692797E0,6.028785E2,3.039559E2,5.194996E0,1.1900769E2,1.9556433E0,5.6136365E0,2.3239319E2,3.7048526E2,2.423742E1,2.7971848E2,2.6537335E0,2.5412624E0,1.168728E2,2.1348886E0,1.4207034E2,9.0322845E1,3.5485876E2,1.5626511E1,1.9058805E1,5.178612E0,1.8515959E2,9.455889E1],"tree_param":{"num_deleted":"0","num_feature":"404","num_nodes":"27","size_leaf_vector":"1"}},{"base_weights":[-8.566912E-3,2.2424723E-1,-5.1151776E-1,3.105149E-1,-1.413378E0,-7.362871E-1,1.8995062E-1,7.0922226E-1,-3.7183466E-3,4.181201E-2,-1.5388955E0,-3.7012976E-1,-1.0894543E0,-5.7982457E-1,6.588249E-1,-2.1432433E-2,4.0044192E-2,1.4068469E-2,-2.737153E-2,4.095171E-2,-4.196572E-2,1.2668164E-2,-8.051021E-2,-3.3909168E-2,1.1881764E-2,-2.287974E-2,-6.6451E-2,3.43084E-2,-4.7741625E-2,4.4204123E-2,-3.338967E-2],"categories":[],"categories_nodes":[],"categories_segments":[],"categories_sizes":[],"default_left":[0,0,0,0,0,0,0,0,0,0,0,0,0,0,0,0,0,0,0,0,0,0,0,0,0,0,0,0,0,0,0],"id":27,"left_children":[1,3,5,7,9,11,13,15,17,19,21,23,25,27,29,-1,-1,-1,-1,-1,-1,-1,-1,-1,-1,-1,-1,-1,-1,-1,-1],"loss_changes":[1.22813515E2,1.0173101E2,5.246614E1,8.54397E1,6.6507645E0,3.2125153E1,2.973654E1,3.1692474E1,5.9421974E1,3.3150723E0,4.6539764E0,2.3567072E1,1.8696121E1,1.5523894E1,1.5834396E1,0E0,0E0,0E0,0E0,0E0,0E0,0E0,0E0,0E0,0E0,0E0,0E0,0E0,0E0,0E0,0E0],"parents":[2147483647,0,0,1,1,2,2,3,3,4,4,5,5,6,6,7,7,8,8,9,9,10,10,11,11,12,12,13,13,14,14],"right_children":[2,4,6,8,10,12,14,16,18,20,22,24,26,28,30,-1,-1,-1,-1,-1,-1,-1,-1,-1,-1,-1,-1,-1,-1,-1,-1],"split_conditions":[1.0472313E0,4.686815E0,4.8418924E-2,-4.7546217E-1,-1.5772909E-2,8.763952E-3,1.3683067E-2,-6.007675E-2,2.269745E-3,-1.5885651E-2,-5.3794134E-2,7.3254295E-3,-4.0265035E-2,-3.1456023E-2,5.3708687E-2,-2.1432433E-2,4.0044192E-2,1.4068469E-2,-2.737153E-2,4.095171E-2,-4.196572E-2,1.2668164E-2,-8.051021E-2,-3.3909168E-2,1.1881764E-2,-2.287974E-2,-6.6451E-2,3.43084E-2,-4.7741625E-2,4.4204123E-2,-3.338967E-2],"split_indices":[391,395,350,386,130,343,117,321,221,0,179,277,139,199,232,0,0,0,0,0,0,0,0,0,0,0,0,0,0,0,0],"split_type":[0,0,0,0,0,0,0,0,0,0,0,0,0,0,0,0,0,0,0,0,0,0,0,0,0,0,0,0,0,0,0],"sum_hessian":[1.0468652E3,7.159902E2,3.3087512E2,6.809302E2,3.5059998E1,2.5054434E2,8.033077E1,2.9957037E2,3.8135977E2,2.8369253E0,3.2223072E1,1.2401543E2,1.26528915E2,3.0318573E1,5.00122E1,2.2058867E1,2.775115E2,2.504975E2,1.3086227E2,1.544779E0,1.2921463E0,1.1353097E0,3.1087765E1,8.222351E1,4.179192E1,3.5584404E1,9.094451E1,6.7389045E0,2.357967E1,4.3038002E1,6.974197E0],"tree_param":{"num_deleted":"0","num_feature":"404","num_nodes":"31","size_leaf_vector":"1"}},{"base_weights":[-1.387091E-2,1.6778238E-1,-6.3631105E-1,4.578035E-1,-1.8958752E-1,-2.2031976E-1,-9.582531E-1,5.399308E-1,-1.177435E0,-5.411835E-1,2.027046E-1,4.2569458E-1,-5.2061236E-1,4.564847E-1,-1.0422727E0,3.9978024E-2,-4.6558757E-3,2.2864714E-2,-6.429326E-2,1.2473655E-3,-4.3020334E-2,2.5597392E-2,-4.3264985E-2,-3.3132702E-2,3.7043314E-2,-3.3334266E-2,2.9988974E-2,5.4800577E-2,-2.9199688E-2,-6.1983585E-2,-2.3239536E-2],"categories":[],"categories_nodes":[],"categories_segments":[],"categories_sizes":[],"default_left":[0,0,0,0,0,0,0,0,0,0,0,0,0,0,0,0,0,0,0,0,0,0,0,0,0,0,0,0,0,0,0],"id":28,"left_children":[1,3,5,7,9,11,13,15,17,19,21,23,25,27,29,-1,-1,-1,-1,-1,-1,-1,-1,-1,-1,-1,-1,-1,-1,-1,-1],"loss_changes":[1.16789734E2,8.2964035E1,3.1039154E1,5.9955E1,4.961601E1,2.0222267E1,1.6075912E1,6.931235E1,4.3878403E0,3.427814E1,5.671274E1,1.1902035E1,1.1992281E1,5.9984884E0,1.3580673E1,0E0,0E0,0E0,0E0,0E0,0E0,0E0,0E0,0E0,0E0,0E0,0E0,0E0,0E0,0E0,0E0],"parents":[2147483647,0,0,1,1,2,2,3,3,4,4,5,5,6,6,7,7,8,8,9,9,10,10,11,11,12,12,13,13,14,14],"right_children":[2,4,6,8,10,12,14,16,18,20,22,24,26,28,30,-1,-1,-1,-1,-1,-1,-1,-1,-1,-1,-1,-1,-1,-1,-1,-1],"split_conditions":[8.1851965E-1,8.897975E-3,-2.5658974E-1,3.5413258E0,1.0975366E-2,-1.0913577E-2,-9.100592E-2,-2.9435825E-1,-7.2162084E-2,-2.3507532E-2,5.203291E-1,-2.6364246E-2,5.3046305E-2,-5.6129643E-3,2.858469E-1,3.9978024E-2,-4.6558757E-3,2.2864714E-2,-6.429326E-2,1.2473655E-3,-4.3020334E-2,2.5597392E-2,-4.3264985E-2,-3.3132702E-2,3.7043314E-2,-3.3334266E-2,2.9988974E-2,5.4800577E-2,-2.9199688E-2,-6.1983585E-2,-2.3239536E-2],"split_indices":[400,67,386,390,113,118,191,397,37,274,403,26,41,135,384,0,0,0,0,0,0,0,0,0,0,0,0,0,0,0,0],"split_type":[0,0,0,0,0,0,0,0,0,0,0,0,0,0,0,0,0,0,0,0,0,0,0,0,0,0,0,0,0,0,0],"sum_hessian":[1.0309689E3,7.9862744E2,2.3234146E2,4.4069965E2,3.579278E2,1.0209966E2,1.3024179E2,4.2026245E2,2.0437216E1,1.885544E2,1.6937341E2,3.226688E1,6.983279E1,7.052771E0,1.23189026E2,2.9784528E2,1.2241716E2,1.071126E0,1.936609E1,6.831755E1,1.2023684E2,1.3174654E2,3.7626877E1,6.998206E0,2.5268673E1,6.213658E1,7.696204E0,4.334941E0,2.7178302E0,9.095234E1,3.2236683E1],"tree_param":{"num_deleted":"0","num_feature":"404","num_nodes":"31","size_leaf_vector":"1"}},{"base_weights":[-1.1836095E-2,-1.8842672E-1,6.9151974E-1,4.046669E-2,-5.8631533E-1,4.6525136E-1,1.0441763E0,1.1067812E-1,-1.4219389E0,-7.1108145E-1,4.4550607E-1,8.9234537E-1,1.8575494E-1,-3.4014296E-2,1.0796428E0,-1.2878249E-2,1.9308103E-2,-7.4196145E-2,-8.495981E-3,1.5966216E-2,-4.0493026E-2,-3.6275398E-2,3.8672727E-2,5.4290302E-2,-1.3629449E-2,2.3271088E-2,-3.0056594E-2,1.1889341E-2,5.677498E-2],"categories":[],"categories_nodes":[],"categories_segments":[],"categories_sizes":[],"default_left":[0,0,0,0,0,0,0,0,0,0,0,0,0,0,0,0,0,0,0,0,0,0,0,0,0,0,0,0,0],"id":29,"left_children":[1,3,5,7,9,11,13,15,17,19,21,23,25,-1,27,-1,-1,-1,-1,-1,-1,-1,-1,-1,-1,-1,-1,-1,-1],"loss_changes":[1.2683951E2,7.435943E1,1.5867546E1,5.3454857E1,3.8697662E1,1.49520855E1,5.5842743E0,5.043895E1,1.598877E0,2.7369324E1,1.3148179E1,1.1526703E1,1.7403786E1,0E0,3.4018173E0,0E0,0E0,0E0,0E0,0E0,0E0,0E0,0E0,0E0,0E0,0E0,0E0,0E0,0E0],"parents":[2147483647,0,0,1,1,2,2,3,3,4,4,5,5,6,6,7,7,8,8,9,9,10,10,11,11,12,12,14,14],"right_children":[2,4,6,8,10,12,14,16,18,20,22,24,26,-1,28,-1,-1,-1,-1,-1,-1,-1,-1,-1,-1,-1,-1,-1,-1],"split_conditions":[3.1318727E-1,6.251947E-3,3.244518E-2,4.686815E0,9.969844E-2,2.8546652E-2,-7.06434E-2,-4.564427E-2,7.203798E-2,-3.5614982E-2,-6.8383574E-1,6.359544E-2,-2.0525841E-2,-3.4014296E-2,-7.2581016E-2,-1.2878249E-2,1.9308103E-2,-7.4196145E-2,-8.495981E-3,1.5966216E-2,-4.0493026E-2,-3.6275398E-2,3.8672727E-2,5.4290302E-2,-1.3629449E-2,2.3271088E-2,-3.0056594E-2,1.1889341E-2,5.677498E-2],"split_indices":[399,274,58,395,238,363,121,244,234,171,399,2,397,0,305,0,0,0,0,0,0,0,0,0,0,0,0,0,0],"split_type":[0,0,0,0,0,0,0,0,0,0,0,0,0,0,0,0,0,0,0,0,0,0,0,0,0,0,0,0,0],"sum_hessian":[1.0191533E3,8.1521136E2,2.0394194E2,5.1807605E2,2.9713535E2,1.2564561E2,7.829634E1,4.9522418E2,2.285185E1,2.6535938E2,3.1775972E1,4.88326E1,7.6813E1,1.2114525E0,7.7084885E1,2.1195975E2,2.8326443E2,2.1597399E1,1.254451E0,2.3017845E1,2.4234154E2,6.68684E0,2.5089134E1,4.1936184E1,6.896418E0,5.6972855E1,1.9840147E1,5.1234202E0,7.1961464E1],"tree_param":{"num_deleted":"0","num_feature":"404","num_nodes":"29","size_leaf_vector":"1"}},{"base_weights":[1.1338358E-2,8.677291E-1,-1.0798001E-1,1.0024985E0,-1.0729727E0,-3.1985115E-2,-1.269535E0,-4.0468824E-1,1.067027E0,-9.573392E-2,4.0310014E-2,-5.338978E-1,1.1455338E-1,6.2385625E-3,-6.57495E-2,2.6877308E-2,-6.800761E-2,5.445196E-2,-1.1100436E-2,-3.834675E-2,1.5806837E-2,1.1562151E-2,-3.694792E-2],"categories":[],"categories_nodes":[],"categories_segments":[],"categories_sizes":[],"default_left":[0,0,0,0,0,0,0,0,0,0,0,0,0,0,0,0,0,0,0,0,0,0,0],"id":30,"left_children":[1,3,5,7,9,11,13,15,17,-1,-1,19,21,-1,-1,-1,-1,-1,-1,-1,-1,-1,-1],"loss_changes":[1.04661064E2,3.3835182E1,7.9323204E1,1.1113647E1,1.5172004E1,6.2202824E1,3.6615677E0,6.027346E0,3.441101E0,0E0,0E0,3.809898E1,6.538508E1,0E0,0E0,0E0,0E0,0E0,0E0,0E0,0E0,0E0,0E0],"parents":[2147483647,0,0,1,1,2,2,3,3,4,4,5,5,6,6,7,7,8,8,11,11,12,12],"right_children":[2,4,6,8,10,12,14,16,18,-1,-1,20,22,-1,-1,-1,-1,-1,-1,-1,-1,-1,-1],"split_conditions":[-7.395571E-1,8.47133E-2,3.5413258E0,-1.0298053E-1,-7.187044E-2,5.1189166E-1,-4.1975203E-1,2.8629987E-2,4.887716E-2,-9.573392E-2,4.0310014E-2,4.7708876E-2,7.517455E-2,6.2385625E-3,-6.57495E-2,2.6877308E-2,-6.800761E-2,5.445196E-2,-1.1100436E-2,-3.834675E-2,1.5806837E-2,1.1562151E-2,-3.694792E-2],"split_indices":[400,121,390,88,364,402,401,217,17,0,0,132,387,0,0,0,0,0,0,0,0,0,0],"split_type":[0,0,0,0,0,0,0,0,0,0,0,0,0,0,0,0,0,0,0,0,0,0,0],"sum_hessian":[1.02233276E3,1.24252884E2,8.980799E2,1.1663665E2,7.616235E0,8.4389545E2,5.4184444E1,4.882897E0,1.1175375E2,5.2470984E0,2.3691368E0,1.9010808E2,6.5378735E2,1.65558E0,5.2528866E1,2.6786923E0,2.2042046E0,1.1002998E2,1.7237675E0,1.4928055E2,4.082753E1,5.7579535E2,7.7992E1],"tree_param":{"num_deleted":"0","num_feature":"404","num_nodes":"23","size_leaf_vector":"1"}},{"base_weights":[-6.718818E-3,2.0713384E-1,-4.6808627E-1,-1.5185025E-1,4.705424E-1,-3.1063917E-1,-9.851267E-1,-7.0665723E-1,2.3029657E-1,5.461322E-1,-7.6700336E-1,5.8741695E-1,-4.340836E-1,-4.9601296E-1,-1.2912682E0,3.3825897E-2,-4.627238E-2,-1.2857589E-2,2.7309952E-2,3.701572E-2,3.3598256E-3,-6.508177E-2,5.2532054E-2,3.973111E-2,-5.5730756E-2,-2.0714446E-3,-3.455887E-2,-3.5819095E-2,5.7063576E-2,-6.5779276E-3,-6.9591604E-2],"categories":[],"categories_nodes":[],"categories_segments":[],"categories_sizes":[],"default_left":[0,0,0,0,0,0,0,0,0,0,0,0,0,0,0,0,0,0,0,0,0,0,0,0,0,0,0,0,0,0,0],"id":31,"left_children":[1,3,5,7,9,11,13,15,17,19,21,23,25,27,29,-1,-1,-1,-1,-1,-1,-1,-1,-1,-1,-1,-1,-1,-1,-1,-1],"loss_changes":[9.999435E1,6.555529E1,2.5823776E1,6.2462368E1,3.780664E1,2.7694277E1,1.0509964E1,3.696906E1,2.7049423E1,3.5034836E1,2.4129166E1,1.1584273E1,2.1996143E1,1.1746525E1,5.0855484E0,0E0,0E0,0E0,0E0,0E0,0E0,0E0,0E0,0E0,0E0,0E0,0E0,0E0,0E0,0E0,0E0],"parents":[2147483647,0,0,1,1,2,2,3,3,4,4,5,5,6,6,7,7,8,8,9,9,10,10,11,11,12,12,13,13,14,14],"right_children":[2,4,6,8,10,12,14,16,18,20,22,24,26,28,30,-1,-1,-1,-1,-1,-1,-1,-1,-1,-1,-1,-1,-1,-1,-1,-1],"split_conditions":[4.2900047E-1,-4.698434E-2,1.8896974E0,-4.0553387E-2,2.6518745E0,-6.143308E-2,7.954212E-34,-5.0363813E-2,5.548E-4,1.5480366E-2,4.2265873E-2,4.686815E0,6.758783E-3,7.257391E-2,-3.2100853E-2,3.3825897E-2,-4.627238E-2,-1.2857589E-2,2.7309952E-2,3.701572E-2,3.3598256E-3,-6.508177E-2,5.2532054E-2,3.973111E-2,-5.5730756E-2,-2.0714446E-3,-3.455887E-2,-3.5819095E-2,5.7063576E-2,-6.5779276E-3,-6.9591604E-2],"split_indices":[400,244,400,303,391,328,223,328,61,375,132,395,288,173,186,0,0,0,0,0,0,0,0,0,0,0,0,0,0,0,0],"split_type":[0,0,0,0,0,0,0,0,0,0,0,0,0,0,0,0,0,0,0,0,0,0,0,0,0,0,0,0,0,0,0],"sum_hessian":[1.0114941E3,6.915148E2,3.199793E2,2.928416E2,3.9867316E2,2.4651297E2,7.3466354E1,1.1909229E2,1.737493E2,3.7625034E2,2.2422821E1,2.933594E1,2.1717703E2,2.9290289E1,4.4176064E1,1.5979443E1,1.03112854E2,6.839674E1,1.0535256E2,2.6732068E2,1.0892967E2,1.7545866E1,4.8769565E0,2.6627449E1,2.7084904E0,8.639249E1,1.3078455E2,2.6311386E1,2.9789023E0,3.7092288E0,4.0466835E1],"tree_param":{"num_deleted":"0","num_feature":"404","num_nodes":"31","size_leaf_vector":"1"}},{"base_weights":[-8.540174E-3,3.5983616E-1,-2.5969526E-1,4.2853433E-1,-1.4399041E0,-5.590179E-1,3.9811123E-2,6.679646E-1,-1.6516735E-1,-7.567025E-2,-1.8353587E-2,-1.4241055E-1,-8.971032E-1,3.7848753E-1,-5.367159E-1,3.9008956E-2,-3.4302186E-2,7.5752637E-3,-6.655077E-2,1.7431418E-3,-6.0920753E-2,9.489648E-3,-5.2732613E-2,4.020036E-2,4.9328185E-3,-8.633163E-3,-4.963182E-2],"categories":[],"categories_nodes":[],"categories_segments":[],"categories_sizes":[],"default_left":[0,0,0,0,0,0,0,0,0,0,0,0,0,0,0,0,0,0,0,0,0,0,0,0,0,0,0],"id":32,"left_children":[1,3,5,7,9,11,13,15,17,-1,-1,19,21,23,25,-1,-1,-1,-1,-1,-1,-1,-1,-1,-1,-1,-1],"loss_changes":[9.2398766E1,5.067541E1,5.3256626E1,5.5656883E1,6.3640404E-1,4.171305E1,5.8340008E1,4.287458E1,4.1957493E1,0E0,0E0,2.5653248E1,2.8248505E1,2.2324419E1,1.8185305E1,0E0,0E0,0E0,0E0,0E0,0E0,0E0,0E0,0E0,0E0,0E0,0E0],"parents":[2147483647,0,0,1,1,2,2,3,3,4,4,5,5,6,6,7,7,8,8,11,11,12,12,13,13,14,14],"right_children":[2,4,6,8,10,12,14,16,18,-1,-1,20,22,24,26,-1,-1,-1,-1,-1,-1,-1,-1,-1,-1,-1,-1],"split_conditions":[-4.7546217E-1,4.686815E0,-6.1073317E-3,-2.9435825E-1,9.668478E-2,-2.7439943E-2,7.2113985E-1,7.517455E-2,4.05537E-2,-7.567025E-2,-1.8353587E-2,2.6518745E0,-4.861689E-2,1.4433184E-1,9.210905E-3,3.9008956E-2,-3.4302186E-2,7.5752637E-3,-6.655077E-2,1.7431418E-3,-6.0920753E-2,9.489648E-3,-5.2732613E-2,4.020036E-2,4.9328185E-3,-8.633163E-3,-4.963182E-2],"split_indices":[386,395,383,397,102,221,400,387,274,0,0,391,67,386,16,0,0,0,0,0,0,0,0,0,0,0,0],"split_type":[0,0,0,0,0,0,0,0,0,0,0,0,0,0,0,0,0,0,0,0,0,0,0,0,0,0,0],"sum_hessian":[9.9668414E2,4.0387558E2,5.928086E2,3.8975986E2,1.4115696E1,2.9606186E2,2.9674673E2,2.776593E2,1.1210056E2,1.2826291E1,1.2894049E0,1.332657E2,1.6279614E2,1.8715025E2,1.0959647E2,2.5680054E2,2.0858757E1,8.8839615E1,2.3260948E1,1.152463E2,1.8019405E1,2.0584373E1,1.4221178E2,7.3504265E1,1.1364598E2,6.170429E1,4.789219E1],"tree_param":{"num_deleted":"0","num_feature":"404","num_nodes":"27","size_leaf_vector":"1"}},{"base_weights":[7.5382536E-4,5.78546E-1,-1.6203879E-1,-5.825462E-1,6.97668E-1,1.0563258E-1,-4.4660407E-1,7.0502406E-1,-1.6477634E0,1.0612816E0,3.1563783E-1,4.3133652E-1,-2.067441E-1,-6.839608E-1,-3.730561E-2,4.9973644E-2,-3.3696245E-2,1.2557176E-2,-9.895866E-2,5.4389615E-2,2.2539857E-3,3.9063763E-2,-1.471663E-2,-3.2364715E-2,2.5684917E-2,5.7757446E-3,-3.1400464E-2,-4.0175274E-2,2.20777E-2,2.7868396E-2,-1.6468417E-2],"categories":[],"categories_nodes":[],"categories_segments":[],"categories_sizes":[],"default_left":[0,0,0,0,0,0,0,0,0,0,0,0,0,0,0,0,0,0,0,0,0,0,0,0,0,0,0,0,0,0,0],"id":33,"left_children":[1,3,5,7,9,11,13,15,17,19,21,23,25,27,29,-1,-1,-1,-1,-1,-1,-1,-1,-1,-1,-1,-1,-1,-1,-1,-1],"loss_changes":[9.3525635E1,3.0636719E1,5.913624E1,2.9802603E1,2.7264526E1,4.0842148E1,3.65224E1,4.79669E0,7.877388E0,2.6819687E0,2.8152977E1,1.7781746E1,2.7920877E1,3.2385338E1,2.4350325E1,0E0,0E0,0E0,0E0,0E0,0E0,0E0,0E0,0E0,0E0,0E0,0E0,0E0,0E0,0E0,0E0],"parents":[2147483647,0,0,1,1,2,2,3,3,4,4,5,5,6,6,7,7,8,8,9,9,10,10,11,11,12,12,13,13,14,14],"right_children":[2,4,6,8,10,12,14,16,18,20,22,24,26,28,30,-1,-1,-1,-1,-1,-1,-1,-1,-1,-1,-1,-1,-1,-1,-1,-1],"split_conditions":[-5.447975E-1,-5.305219E-2,-8.218424E-3,1.4871031E-2,2.5740972E-2,2.9742649E-2,2.8357385E-2,1.7100136E0,-8.035218E-3,1.10591725E-1,6.3392716E-3,-3.2555036E-2,-2.0599237E-2,5.4978084E-2,1.8067306E-2,4.9973644E-2,-3.3696245E-2,1.2557176E-2,-9.895866E-2,5.4389615E-2,2.2539857E-3,3.9063763E-2,-1.471663E-2,-3.2364715E-2,2.5684917E-2,5.7757446E-3,-3.1400464E-2,-4.0175274E-2,2.20777E-2,2.7868396E-2,-1.6468417E-2],"split_indices":[400,113,274,171,349,174,132,386,118,101,298,220,215,60,403,0,0,0,0,0,0,0,0,0,0,0,0,0,0,0,0],"split_type":[0,0,0,0,0,0,0,0,0,0,0,0,0,0,0,0,0,0,0,0,0,0,0,0,0,0,0,0,0,0,0],"sum_hessian":[9.923192E2,2.1756656E2,7.747526E2,1.9882257E1,1.9768431E2,3.9955087E2,3.7520175E2,9.154722E0,1.0727535E1,1.003725E2,9.731181E1,1.9541638E2,2.0413448E2,2.3705807E2,1.3814368E2,7.7706394E0,1.3840827E0,1.6300279E0,9.0975065E0,9.7751884E1,2.6206071E0,5.502565E1,4.2286163E1,1.3376409E1,1.8203998E2,1.1606952E2,8.806496E1,2.1455553E2,2.2502554E1,4.5200943E1,9.294274E1],"tree_param":{"num_deleted":"0","num_feature":"404","num_nodes":"31","size_leaf_vector":"1"}},{"base_weights":[5.983655E-3,-1.6008079E-1,5.7449E-1,-2.3869056E-2,-7.3130465E-1,7.492184E-1,4.569379E-2,4.630774E-2,-1.3184354E0,-4.1413715E-1,-1.258527E0,-7.028762E-2,8.3889073E-1,3.477604E-1,-9.6036446E-1,2.102971E-2,-9.410251E-3,-3.1517537E-3,-7.0705384E-2,-4.0163532E-2,6.272373E-3,-3.3893113E-3,-7.147118E-2,-1.0495477E-1,2.1085843E-2,4.365629E-2,-5.691877E-2,-1.2196673E-2,4.4556372E-2,-6.625877E-2,4.268154E-2],"categories":[],"categories_nodes":[],"categories_segments":[],"categories_sizes":[],"default_left":[0,0,0,0,0,0,0,0,0,0,0,0,0,0,0,0,0,0,0,0,0,0,0,0,0,0,0,0,0,0,0],"id":34,"left_children":[1,3,5,7,9,11,13,15,17,19,21,23,25,27,29,-1,-1,-1,-1,-1,-1,-1,-1,-1,-1,-1,-1,-1,-1,-1,-1],"loss_changes":[9.273276E1,5.913324E1,2.0482666E1,5.592184E1,2.3949638E1,1.2319519E1,1.7417448E1,5.135962E1,3.7124557E0,1.9599327E1,1.0988983E1,1.8231756E1,1.1178978E1,1.4353401E1,9.897426E0,0E0,0E0,0E0,0E0,0E0,0E0,0E0,0E0,0E0,0E0,0E0,0E0,0E0,0E0,0E0,0E0],"parents":[2147483647,0,0,1,1,2,2,3,3,4,4,5,5,6,6,7,7,8,8,9,9,10,10,11,11,12,12,13,13,14,14],"right_children":[2,4,6,8,10,12,14,16,18,20,22,24,26,28,30,-1,-1,-1,-1,-1,-1,-1,-1,-1,-1,-1,-1,-1,-1,-1,-1],"split_conditions":[2.264896E-1,5.3719576E-2,1.0472313E0,4.686815E0,3.598941E-3,-8.431218E-2,5.5247318E-2,2.5763642E-2,-2.121874E-2,6.495968E-3,-4.1899383E-2,-3.9151564E-2,4.686815E0,5.015052E-3,5.2692875E-2,2.102971E-2,-9.410251E-3,-3.1517537E-3,-7.0705384E-2,-4.0163532E-2,6.272373E-3,-3.3893113E-3,-7.147118E-2,-1.0495477E-1,2.1085843E-2,4.365629E-2,-5.691877E-2,-1.2196673E-2,4.4556372E-2,-6.625877E-2,4.268154E-2],"split_indices":[399,67,391,395,381,340,55,270,130,163,378,61,395,324,175,0,0,0,0,0,0,0,0,0,0,0,0,0,0,0,0],"split_type":[0,0,0,0,0,0,0,0,0,0,0,0,0,0,0,0,0,0,0,0,0,0,0,0,0,0,0,0,0,0,0],"sum_hessian":[9.8027405E2,7.592195E2,2.2105458E2,6.138783E2,1.4534116E2,1.6583983E2,5.5214745E1,5.8322656E2,3.0651741E1,9.1863335E1,5.347782E1,1.6378115E1,1.4946172E2,4.296803E1,1.2246716E1,2.2435637E2,3.588702E2,2.2879815E0,2.836376E1,5.308861E1,3.8774723E1,6.8871894E0,4.659063E1,2.5591016E0,1.3819013E1,1.4746684E2,1.9948767E0,2.0833103E1,2.2134924E1,1.0420526E1,1.8261907E0],"tree_param":{"num_deleted":"0","num_feature":"404","num_nodes":"31","size_leaf_vector":"1"}},{"base_weights":[-1.293677E-2,8.5045826E-1,-1.1708413E-1,9.7236496E-1,-1.1145601E0,8.628771E-2,-5.12205E-1,1.0079848E0,-3.821209E-2,3.152612E-2,-8.183416E-2,1.5879072E-1,-1.2214935E0,-2.3159909E-1,-8.7399554E-1,5.2234996E-2,-2.4924763E-2,-1.131867E-2,1.9261373E-2,-5.2438346E-3,-6.2806666E-2,-2.0577429E-2,2.9099418E-2,-5.8025874E-2,-1.1109053E-2],"categories":[],"categories_nodes":[],"categories_segments":[],"categories_sizes":[],"default_left":[0,0,0,0,0,0,0,0,0,0,0,0,0,0,0,0,0,0,0,0,0,0,0,0,0],"id":35,"left_children":[1,3,5,7,9,11,13,15,-1,-1,-1,17,19,21,23,-1,-1,-1,-1,-1,-1,-1,-1,-1,-1],"loss_changes":[8.911901E1,2.6639725E1,7.11032E1,7.01709E0,7.13466E0,5.5630596E1,3.0318169E1,6.0179596E0,0E0,0E0,0E0,4.84775E1,1.060585E0,2.5227053E1,2.4200119E1,0E0,0E0,0E0,0E0,0E0,0E0,0E0,0E0,0E0,0E0],"parents":[2147483647,0,0,1,1,2,2,3,3,4,4,5,5,6,6,7,7,11,11,12,12,13,13,14,14],"right_children":[2,4,6,8,10,12,14,16,-1,-1,-1,18,20,22,24,-1,-1,-1,-1,-1,-1,-1,-1,-1,-1],"split_conditions":[-7.395571E-1,9.304387E-2,1.0472313E0,3.5413258E0,5.0946273E-2,3.5413258E0,3.478772E-2,4.887716E-2,-3.821209E-2,3.152612E-2,-8.183416E-2,-4.0082995E-2,-9.73409E-2,3.183382E-2,2.0890648E-2,5.2234996E-2,-2.4924763E-2,-1.131867E-2,1.9261373E-2,-5.2438346E-3,-6.2806666E-2,-2.0577429E-2,2.9099418E-2,-5.8025874E-2,-1.1109053E-2],"split_indices":[400,121,391,390,19,390,131,17,0,0,0,303,204,176,113,0,0,0,0,0,0,0,0,0,0],"split_type":[0,0,0,0,0,0,0,0,0,0,0,0,0,0,0,0,0,0,0,0,0,0,0,0,0],"sum_hessian":[9.8898126E2,1.05683716E2,8.8329755E2,9.998591E1,5.6978083E0,5.8366315E2,2.9963443E2,9.8387436E1,1.5984721E0,1.2643571E0,4.4334507E0,5.5383716E2,2.982599E1,1.696745E2,1.2995993E2,9.634587E1,2.0415652E0,2.0505063E2,3.487865E2,1.01861E0,2.880738E1,1.3934769E2,3.0326803E1,8.973441E1,4.0225517E1],"tree_param":{"num_deleted":"0","num_feature":"404","num_nodes":"25","size_leaf_vector":"1"}},{"base_weights":[1.5042828E-2,-1.3575552E-1,6.127397E-1,-4.056152E-1,1.7615288E-1,7.6525205E-1,1.2244584E-1,-6.1857E-1,6.924582E-2,-8.0319375E-1,3.0444023E-1,9.354554E-1,3.11638E-1,-7.5425327E-1,5.2768755E-1,2.6726756E-2,-3.4950484E-2,1.3439469E-2,-3.314919E-2,-6.251215E-2,1.6390454E-2,3.3189643E-2,-3.2847952E-3,4.8158407E-2,-4.3183744E-2,4.4860285E-2,-1.7382989E-2,2.2191713E-2,-6.683902E-2,-6.849425E-2,3.992243E-2],"categories":[],"categories_nodes":[],"categories_segments":[],"categories_sizes":[],"default_left":[0,0,0,0,0,0,0,0,0,0,0,0,0,0,0,0,0,0,0,0,0,0,0,0,0,0,0,0,0,0,0],"id":36,"left_children":[1,3,5,7,9,11,13,15,17,19,21,23,25,27,29,-1,-1,-1,-1,-1,-1,-1,-1,-1,-1,-1,-1,-1,-1,-1,-1],"loss_changes":[8.759549E1,6.54006E1,1.454705E1,4.215319E1,4.5564575E1,1.1223854E1,1.732504E1,2.7049606E1,1.9147621E1,2.1672846E1,4.2562202E1,6.2144394E0,1.660146E1,1.1392146E1,1.8137152E1,0E0,0E0,0E0,0E0,0E0,0E0,0E0,0E0,0E0,0E0,0E0,0E0,0E0,0E0,0E0,0E0],"parents":[2147483647,0,0,1,1,2,2,3,3,4,4,5,5,6,6,7,7,8,8,9,9,10,10,11,11,12,12,13,13,14,14],"right_children":[2,4,6,8,10,12,14,16,18,20,22,24,26,28,30,-1,-1,-1,-1,-1,-1,-1,-1,-1,-1,-1,-1,-1,-1,-1,-1],"split_conditions":[2.6983842E-1,1.566244E-2,1.0472313E0,1.4848312E-2,-4.9226962E-2,3.005401E-1,-1.9740311E-2,-4.7863758E-1,5.3719576E-2,2.9594168E-2,-1.7681008E-2,4.686815E0,9.099398E-3,-1.619452E-2,-3.2639887E-2,2.6726756E-2,-3.4950484E-2,1.3439469E-2,-3.314919E-2,-6.251215E-2,1.6390454E-2,3.3189643E-2,-3.2847952E-3,4.8158407E-2,-4.3183744E-2,4.4860285E-2,-1.7382989E-2,2.2191713E-2,-6.683902E-2,-6.849425E-2,3.992243E-2],"split_indices":[399,234,391,383,321,386,302,403,67,132,338,395,36,343,373,0,0,0,0,0,0,0,0,0,0,0,0,0,0,0,0],"split_type":[0,0,0,0,0,0,0,0,0,0,0,0,0,0,0,0,0,0,0,0,0,0,0,0,0,0,0,0,0,0,0],"sum_hessian":[9.6993823E2,7.751432E2,1.9479503E2,4.1542322E2,3.5972E2,1.4815016E2,4.6644863E1,2.86595E2,1.288282E2,4.1053825E1,3.1866617E2,1.0695622E2,4.1193935E1,1.4472925E1,3.217194E1,1.832078E1,2.6827423E2,1.0173642E2,2.7091785E1,2.934805E1,1.1705775E1,1.6128584E2,1.5738033E2,1.0579133E2,1.164901E0,2.162576E1,1.9568174E1,4.8126993E0,9.660226E0,3.5104303E0,2.8661509E1],"tree_param":{"num_deleted":"0","num_feature":"404","num_nodes":"31","size_leaf_vector":"1"}},{"base_weights":[-1.2109045E-2,8.0319446E-1,-1.0728956E-1,9.47942E-1,-9.4117266E-1,-4.1748937E-2,-1.1800555E0,-6.040823E-2,9.873343E-1,3.831225E-2,-8.403819E-2,3.398398E-1,-2.3582108E-1,3.6327157E-2,-1.2388079E0,5.1608544E-2,-3.9698336E-2,2.18735E-2,-3.730505E-2,-1.6015925E-3,-3.2508213E-2,-6.2955655E-2,-8.061615E-3],"categories":[],"categories_nodes":[],"categories_segments":[],"categories_sizes":[],"default_left":[0,0,0,0,0,0,0,0,0,0,0,0,0,0,0,0,0,0,0,0,0,0,0],"id":37,"left_children":[1,3,5,7,9,11,13,-1,15,-1,-1,17,19,-1,21,-1,-1,-1,-1,-1,-1,-1,-1],"loss_changes":[7.507212E1,2.6427635E1,6.0850773E1,9.166679E0,1.1706944E1,6.060833E1,6.482422E0,0E0,8.227074E0,0E0,0E0,2.9583473E1,4.577671E1,0E0,8.628845E-1,0E0,0E0,0E0,0E0,0E0,0E0,0E0,0E0],"parents":[2147483647,0,0,1,1,2,2,3,3,4,4,5,5,6,6,8,8,11,11,12,12,14,14],"right_children":[2,4,6,8,10,12,14,-1,16,-1,-1,18,20,-1,22,-1,-1,-1,-1,-1,-1,-1,-1],"split_conditions":[-7.395571E-1,8.47133E-2,3.5413258E0,-9.6725784E-2,-4.7546217E-1,-9.485758E-3,-4.1975203E-1,-6.040823E-2,3.5413258E0,3.831225E-2,-8.403819E-2,2.6518745E0,-2.9435825E-1,3.6327157E-2,2.3738499E0,5.1608544E-2,-3.9698336E-2,2.18735E-2,-3.730505E-2,-1.6015925E-3,-3.2508213E-2,-6.2955655E-2,-8.061615E-3],"split_indices":[400,121,390,287,386,343,401,0,390,0,0,391,397,0,387,0,0,0,0,0,0,0,0],"split_type":[0,0,0,0,0,0,0,0,0,0,0,0,0,0,0,0,0,0,0,0,0,0,0],"sum_hessian":[9.6530115E2,1.00133385E2,8.651678E2,9.288256E1,7.250824E0,8.163328E2,4.8834927E1,1.1341772E0,9.174838E1,2.1806183E0,5.0702057E0,2.749565E2,5.4137634E2,1.1200936E0,4.7714832E1,8.9905945E1,1.8424416E0,2.5282384E2,2.2132668E1,3.636146E2,1.7776176E2,4.6667E1,1.0478342E0],"tree_param":{"num_deleted":"0","num_feature":"404","num_nodes":"23","size_leaf_vector":"1"}},{"base_weights":[-1.4995685E-2,-2.3714073E-1,3.2425833E-1,2.3335266E-1,-4.324998E-1,4.9711037E-1,-1.2619786E-1,-5.6120086E-1,4.0204206E-1,4.3431614E-2,-6.4372146E-1,5.503888E-1,-5.6239333E-2,-6.319474E-1,3.108298E-1,4.034136E-2,-4.2536724E-2,-2.481642E-3,3.5147842E-2,-1.9481353E-2,2.4533449E-2,-5.6164604E-2,-2.2893613E-2,3.572443E-2,5.401377E-3,-6.626883E-2,-9.489774E-3,4.1277114E-2,-7.413531E-3],"categories":[],"categories_nodes":[],"categories_segments":[],"categories_sizes":[],"default_left":[0,0,0,0,0,0,0,0,0,0,0,0,0,0,0,0,0,0,0,0,0,0,0,0,0,0,0,0,0],"id":38,"left_children":[1,3,5,7,9,11,13,15,17,19,21,23,-1,25,27,-1,-1,-1,-1,-1,-1,-1,-1,-1,-1,-1,-1,-1,-1],"loss_changes":[7.196825E1,5.3139324E1,2.948613E1,2.3004536E1,4.1051643E1,2.4235374E1,2.353501E1,1.26404705E1,1.916775E1,2.466788E1,2.468293E1,1.917971E1,0E0,1.4856873E1,1.3666122E1,0E0,0E0,0E0,0E0,0E0,0E0,0E0,0E0,0E0,0E0,0E0,0E0,0E0,0E0],"parents":[2147483647,0,0,1,1,2,2,3,3,4,4,5,5,6,6,7,7,8,8,9,9,10,10,11,11,13,13,14,14],"right_children":[2,4,6,8,10,12,14,16,18,20,22,24,-1,26,28,-1,-1,-1,-1,-1,-1,-1,-1,-1,-1,-1,-1,-1,-1],"split_conditions":[-1.1163124E-1,-3.97878E-2,1.0472313E0,-2.3608463E-2,1.4391902E-2,3.5413258E0,1.0415726E-2,-3.9357394E-2,-2.1989865E-3,1.9130417E-3,-5.7619497E-2,3.272556E-2,-5.6239333E-2,-1.30476635E-2,1.0051284E-2,4.034136E-2,-4.2536724E-2,-2.481642E-3,3.5147842E-2,-1.9481353E-2,2.4533449E-2,-5.6164604E-2,-2.2893613E-2,3.572443E-2,5.401377E-3,-6.626883E-2,-9.489774E-3,4.1277114E-2,-7.413531E-3],"split_indices":[399,338,391,54,270,390,350,152,35,234,303,67,0,43,349,0,0,0,0,0,0,0,0,0,0,0,0,0,0],"split_type":[0,0,0,0,0,0,0,0,0,0,0,0,0,0,0,0,0,0,0,0,0,0,0,0,0,0,0,0,0],"sum_hessian":[9.5292676E2,5.760365E2,3.768903E2,1.6895029E2,4.070862E2,2.7229852E2,1.04591774E2,2.9180193E1,1.397701E2,1.2537702E2,2.817092E2,2.6427777E2,8.020729E0,4.827713E1,5.6314644E1,4.7849526E0,2.439524E1,5.6219433E1,8.355067E1,6.3763657E1,6.161336E1,7.7271484E1,2.044377E2,1.9231921E2,7.195857E1,1.8019497E1,3.0257631E1,2.6173029E1,3.0141615E1],"tree_param":{"num_deleted":"0","num_feature":"404","num_nodes":"29","size_leaf_vector":"1"}},{"base_weights":[1.2286963E-2,7.81174E-2,-1.1723202E0,3.1123552E-1,-2.178734E-1,5.4316516E-3,-1.2030404E0,3.978625E-1,-8.2981455E-1,-4.838993E-1,1.2320844E-1,-1.2216247E0,-1.1118299E-2,2.2110812E-2,-7.039064E-2,-5.8176983E-2,1.0527326E-2,-1.6264884E-2,-6.4666666E-2,-3.600264E-2,1.4727214E-2,-6.1909743E-2,-1.1578205E-2],"categories":[],"categories_nodes":[],"categories_segments":[],"categories_sizes":[],"default_left":[0,0,0,0,0,0,0,0,0,0,0,0,0,0,0,0,0,0,0,0,0,0,0],"id":39,"left_children":[1,3,5,7,9,-1,11,13,15,17,19,21,-1,-1,-1,-1,-1,-1,-1,-1,-1,-1,-1],"loss_changes":[7.295301E1,6.120745E1,2.0687637E0,4.9366745E1,3.553573E1,0E0,6.064377E-1,3.760446E1,1.2511082E1,2.7804443E1,2.5079914E1,4.853363E-1,0E0,0E0,0E0,0E0,0E0,0E0,0E0,0E0,0E0,0E0,0E0],"parents":[2147483647,0,0,1,1,2,2,3,3,4,4,6,6,7,7,8,8,9,9,10,10,11,11],"right_children":[2,4,6,8,10,-1,12,14,16,18,20,22,-1,-1,-1,-1,-1,-1,-1,-1,-1,-1,-1],"split_conditions":[3.5413258E0,1.3604555E-2,-7.315335E-2,2.6518745E0,2.0705415E-2,5.4316516E-3,-1.935211E-8,4.686815E0,3.0794913E-2,6.848704E-2,-4.7706004E-2,6.934833E-2,-1.1118299E-2,2.2110812E-2,-7.039064E-2,-5.8176983E-2,1.0527326E-2,-1.6264884E-2,-6.4666666E-2,-3.600264E-2,1.4727214E-2,-6.1909743E-2,-1.1578205E-2],"split_indices":[390,67,293,391,132,0,319,395,351,272,371,49,0,0,0,0,0,0,0,0,0,0,0],"split_type":[0,0,0,0,0,0,0,0,0,0,0,0,0,0,0,0,0,0,0,0,0,0,0],"sum_hessian":[9.33322E2,8.850713E2,4.825071E1,4.9509222E2,3.8997906E2,1.070658E0,4.718005E1,4.6076303E2,3.4329185E1,2.188606E2,1.7111847E2,4.606146E1,1.1185923E0,4.5045343E2,1.0309631E1,2.5901993E1,8.427194E0,1.8417497E2,3.468562E1,2.8356094E1,1.4276237E2,4.5056747E1,1.0047134E0],"tree_param":{"num_deleted":"0","num_feature":"404","num_nodes":"23","size_leaf_vector":"1"}},{"base_weights":[6.147206E-3,8.168426E-1,-8.493974E-2,9.510771E-1,-1.0431609E0,4.8928842E-1,-1.9395292E-1,-6.8556887E-1,1.0023872E0,-6.1619192E-2,-8.824699E-3,7.010231E-1,-2.0849937E-1,-4.0705946E-1,1.7577054E-1,-9.029137E-2,3.1381246E-2,-8.23291E-3,5.282138E-2,4.19832E-2,-2.1693543E-2,-2.471819E-2,5.3914677E-2,-2.566852E-2,1.6577467E-2,-8.146641E-3,2.4039915E-2],"categories":[],"categories_nodes":[],"categories_segments":[],"categories_sizes":[],"default_left":[0,0,0,0,0,0,0,0,0,0,0,0,0,0,0,0,0,0,0,0,0,0,0,0,0,0,0],"id":40,"left_children":[1,3,5,7,9,11,13,15,17,-1,-1,19,21,23,25,-1,-1,-1,-1,-1,-1,-1,-1,-1,-1,-1,-1],"loss_changes":[6.9633995E1,2.477348E1,5.3166016E1,8.191376E0,9.121108E-1,2.01736E1,5.626881E1,6.0030766E0,5.663986E0,0E0,0E0,1.6763504E1,1.2424592E1,3.572175E1,2.7094067E1,0E0,0E0,0E0,0E0,0E0,0E0,0E0,0E0,0E0,0E0,0E0,0E0],"parents":[2147483647,0,0,1,1,2,2,3,3,4,4,5,5,6,6,7,7,8,8,11,11,12,12,13,13,14,14],"right_children":[2,4,6,8,10,12,14,16,18,-1,-1,20,22,24,26,-1,-1,-1,-1,-1,-1,-1,-1,-1,-1,-1,-1],"split_conditions":[-7.395571E-1,9.304387E-2,-5.180703E-2,-1.2846832E-1,-2.6730092E-2,1.0472313E0,-2.3358993E-2,3.153703E-2,-1.03516854E-1,-6.1619192E-2,-8.824699E-3,7.517455E-2,3.278103E-2,7.189641E-1,-2.8296595E-2,-9.029137E-2,3.1381246E-2,-8.23291E-3,5.282138E-2,4.19832E-2,-2.1693543E-2,-2.471819E-2,5.3914677E-2,-2.566852E-2,1.6577467E-2,-8.146641E-3,2.4039915E-2],"split_indices":[400,121,328,158,286,391,244,227,297,0,0,387,84,384,94,0,0,0,0,0,0,0,0,0,0,0,0],"split_type":[0,0,0,0,0,0,0,0,0,0,0,0,0,0,0,0,0,0,0,0,0,0,0,0,0,0,0],"sum_hessian":[9.410512E2,9.4248604E1,8.468026E2,8.83604E1,5.888209E0,1.3455328E2,7.122493E2,2.3102026E0,8.605019E1,4.486642E0,1.401567E0,1.03226036E2,3.1327244E1,4.517577E2,2.6049164E2,1.0442406E0,1.2659619E0,3.717645E0,8.233255E1,9.222036E1,1.1005679E1,2.613672E1,5.190524E0,3.9518243E2,5.6575253E1,1.23652985E2,1.3683864E2],"tree_param":{"num_deleted":"0","num_feature":"404","num_nodes":"27","size_leaf_vector":"1"}},{"base_weights":[-5.00147E-4,-1.4557262E-1,5.8431E-1,3.3525175E-1,-2.8563303E-1,-8.15259E-1,6.3285357E-1,5.056722E-1,-4.3929377E-1,-5.097499E-1,4.8908256E-2,6.3272095E-1,-1.602751E0,6.933508E-1,-3.7218934E-1,-9.1249235E-3,3.4227025E-2,-4.5352425E-2,2.8024802E-2,9.298746E-3,-3.2567076E-2,6.279471E-3,-6.763076E-2,5.3075436E-3,4.176629E-2,-1.290557E-2,-9.76158E-2,2.0300383E-2,4.7559116E-2,2.6218176E-2,-6.224348E-2],"categories":[],"categories_nodes":[],"categories_segments":[],"categories_sizes":[],"default_left":[0,0,0,0,0,0,0,0,0,0,0,0,0,0,0,0,0,0,0,0,0,0,0,0,0,0,0,0,0,0,0],"id":41,"left_children":[1,3,5,7,9,11,13,15,17,19,21,23,25,27,29,-1,-1,-1,-1,-1,-1,-1,-1,-1,-1,-1,-1,-1,-1,-1,-1],"loss_changes":[7.968409E1,5.0775444E1,1.3199173E1,2.2690968E1,4.3760403E1,8.648209E0,1.1262527E1,1.7356167E1,1.5115004E1,3.4540047E1,2.54173E1,2.3943198E-1,1.6674671E0,1.2287079E1,9.201685E0,0E0,0E0,0E0,0E0,0E0,0E0,0E0,0E0,0E0,0E0,0E0,0E0,0E0,0E0,0E0,0E0],"parents":[2147483647,0,0,1,1,2,2,3,3,4,4,5,5,6,6,7,7,8,8,9,9,10,10,11,11,12,12,13,13,14,14],"right_children":[2,4,6,8,10,12,14,16,18,20,22,24,26,28,30,-1,-1,-1,-1,-1,-1,-1,-1,-1,-1,-1,-1,-1,-1,-1,-1],"split_conditions":[2.6983842E-1,-5.1139884E-2,-7.486211E-2,1.0132793E0,2.6734987E-2,-3.390485E-2,8.352352E-2,-5.4151326E-2,2.362327E-2,-4.5030136E-2,4.686815E0,1.9091574E-2,-3.5452822E-3,-2.367775E-8,-1.9558052E-2,-9.1249235E-3,3.4227025E-2,-4.5352425E-2,2.8024802E-2,9.298746E-3,-3.2567076E-2,6.279471E-3,-6.763076E-2,5.3075436E-3,4.176629E-2,-1.290557E-2,-9.76158E-2,2.0300383E-2,4.7559116E-2,2.6218176E-2,-6.224348E-2],"split_indices":[399,274,259,400,132,296,343,340,10,67,395,35,59,319,106,0,0,0,0,0,0,0,0,0,0,0,0,0,0,0,0],"split_type":[0,0,0,0,0,0,0,0,0,0,0,0,0,0,0,0,0,0,0,0,0,0,0,0,0,0,0,0,0,0,0],"sum_hessian":[9.372269E2,7.515442E2,1.8568272E2,1.6922046E2,5.823237E2,5.694992E0,1.7998773E2,1.3898683E2,3.0233635E1,3.4839935E2,2.3392438E2,2.075415E0,3.6195772E0,1.7006125E2,9.92648E0,2.8668491E1,1.1031834E2,2.0660376E1,9.573258E0,5.886193E1,2.8953745E2,2.2265283E2,1.1271552E1,1.0000958E0,1.0753192E0,1.1055063E0,2.514071E0,8.164537E1,8.841587E1,5.093145E0,4.833336E0],"tree_param":{"num_deleted":"0","num_feature":"404","num_nodes":"31","size_leaf_vector":"1"}},{"base_weights":[-2.5026498E-2,-1.6201997E-1,4.89278E-1,3.7828933E-2,-5.1070267E-1,7.8103846E-1,1.8365888E-1,1.11403905E-1,-9.8201954E-1,-5.0348967E-2,-7.09006E-1,8.580372E-1,-3.8099518E-1,-1.1536856E-1,8.394489E-1,-2.935932E-2,1.085547E-2,-5.938768E-2,2.2423785E-2,-3.0310964E-2,2.0922577E-2,-1.6087804E-2,-5.027568E-2,-5.32292E-2,4.464582E-2,-6.148385E-2,4.817449E-2,-3.0150983E-2,2.0145498E-2,-1.8965868E-2,4.9265124E-2],"categories":[],"categories_nodes":[],"categories_segments":[],"categories_sizes":[],"default_left":[0,0,0,0,0,0,0,0,0,0,0,0,0,0,0,0,0,0,0,0,0,0,0,0,0,0,0,0,0,0,0],"id":42,"left_children":[1,3,5,7,9,11,13,15,17,19,21,23,25,27,29,-1,-1,-1,-1,-1,-1,-1,-1,-1,-1,-1,-1,-1,-1,-1,-1],"loss_changes":[6.5747345E1,5.135862E1,1.7359528E1,3.5320114E1,2.4474747E1,9.284805E0,1.9153193E1,3.2514183E1,9.855398E0,2.1599195E1,2.1214783E1,7.2677155E0,9.074094E0,1.7333826E1,5.8051567E0,0E0,0E0,0E0,0E0,0E0,0E0,0E0,0E0,0E0,0E0,0E0,0E0,0E0,0E0,0E0,0E0],"parents":[2147483647,0,0,1,1,2,2,3,3,4,4,5,5,6,6,7,7,8,8,9,9,10,10,11,11,12,12,13,13,14,14],"right_children":[2,4,6,8,10,12,14,16,18,20,22,24,26,28,30,-1,-1,-1,-1,-1,-1,-1,-1,-1,-1,-1,-1,-1,-1,-1,-1],"split_conditions":[2.264896E-1,6.8981517E-3,-2.0053566E-1,2.1818368E0,9.655412E-3,7.517455E-2,3.244518E-2,-5.2736733E-2,5.705062E-2,6.803702E-3,1.5936555E-1,-6.515297E-2,1.1356442E-2,1.129934E-2,-3.4458403E-2,-2.935932E-2,1.085547E-2,-5.938768E-2,2.2423785E-2,-3.0310964E-2,2.0922577E-2,-1.6087804E-2,-5.027568E-2,-5.32292E-2,4.464582E-2,-6.148385E-2,4.817449E-2,-3.0150983E-2,2.0145498E-2,-1.8965868E-2,4.9265124E-2],"split_indices":[399,274,386,400,19,387,58,194,13,299,403,93,226,350,38,0,0,0,0,0,0,0,0,0,0,0,0,0,0,0,0],"split_type":[0,0,0,0,0,0,0,0,0,0,0,0,0,0,0,0,0,0,0,0,0,0,0,0,0,0,0,0,0,0,0],"sum_hessian":[9.3103906E2,7.35746E2,1.9529308E2,4.6825516E2,2.674908E2,9.911601E1,9.617707E1,4.3757776E2,3.0677427E1,8.0911575E1,1.8657924E2,9.3201866E1,5.9141417E0,6.662256E1,2.9554508E1,5.691052E1,3.8066724E2,2.6968502E1,3.7089238E0,3.688401E1,4.402757E1,8.181323E1,1.04766014E2,1.1346631E0,9.206721E1,3.6779156E0,2.236226E0,3.4241264E1,3.2381298E1,2.9877672E0,2.6566742E1],"tree_param":{"num_deleted":"0","num_feature":"404","num_nodes":"31","size_leaf_vector":"1"}},{"base_weights":[5.951162E-3,6.4833365E-2,-1.1355989E0,3.4656593E-1,-2.1678506E-1,1.967326E-2,-1.2029243E0,2.7700866E-2,5.8212835E-1,-4.5366535E-1,1.86947E-1,-1.6041825E-2,-6.081993E-2,9.849864E-3,-4.1719627E-2,4.2844396E-2,1.4738144E-2,-4.6259664E-2,-1.003749E-2,2.0081965E-2,-2.022209E-2],"categories":[],"categories_nodes":[],"categories_segments":[],"categories_sizes":[],"default_left":[0,0,0,0,0,0,0,0,0,0,0,0,0,0,0,0,0,0,0,0,0],"id":43,"left_children":[1,3,5,7,9,-1,11,13,15,17,19,-1,-1,-1,-1,-1,-1,-1,-1,-1,-1],"loss_changes":[6.256529E1,7.029547E1,5.1734123E0,3.324502E1,4.2473328E1,0E0,1.3243866E-1,2.7776804E1,1.9851715E1,3.3161545E1,2.106126E1,0E0,0E0,0E0,0E0,0E0,0E0,0E0,0E0,0E0,0E0],"parents":[2147483647,0,0,1,1,2,2,3,3,4,4,6,6,7,7,8,8,9,9,10,10],"right_children":[2,4,6,8,10,-1,12,14,16,18,20,-1,-1,-1,-1,-1,-1,-1,-1,-1,-1],"split_conditions":[3.5413258E0,8.974987E-3,-4.1975203E-1,-2.6692252E-8,-1.143898E-1,1.967326E-2,-7.734037E-2,-6.2947273E-3,4.3477584E-3,-6.296923E-3,1.0472313E0,-1.6041825E-2,-6.081993E-2,9.849864E-3,-4.1719627E-2,4.2844396E-2,1.4738144E-2,-4.6259664E-2,-1.003749E-2,2.0081965E-2,-2.022209E-2],"split_indices":[390,343,401,319,399,0,82,17,298,180,391,0,0,0,0,0,0,0,0,0,0],"split_type":[0,0,0,0,0,0,0,0,0,0,0,0,0,0,0,0,0,0,0,0,0],"sum_hessian":[9.287005E2,8.840439E2,4.4656593E1,4.4181708E2,4.422268E2,1.6790261E0,4.297757E1,1.881919E2,2.5362518E2,2.7862592E2,1.6360089E2,1.0199245E0,4.195764E1,1.579462E2,3.024571E1,1.2864328E2,1.2498191E2,9.6345055E1,1.8228085E2,1.2026269E2,4.3338196E1],"tree_param":{"num_deleted":"0","num_feature":"404","num_nodes":"21","size_leaf_vector":"1"}},{"base_weights":[4.2577577E-3,1.308185E-1,-5.490786E-1,3.568195E-1,-3.0545023E-1,-6.0815036E-1,1.0587057E0,4.1391605E-1,-1.1450248E0,-5.7399994E-1,1.8959413E-1,-2.5982577E-1,-8.689997E-1,7.598322E-2,-1.4561302E-2,3.0785069E-2,-1.465944E-4,-6.3674584E-2,1.9994644E-2,-3.8156267E-2,2.0976333E-2,3.408348E-2,-1.1319891E-2,-4.0867437E-2,8.952391E-3,-4.640233E-2,2.2620823E-2],"categories":[],"categories_nodes":[],"categories_segments":[],"categories_sizes":[],"default_left":[0,0,0,0,0,0,0,0,0,0,0,0,0,0,0,0,0,0,0,0,0,0,0,0,0,0,0],"id":44,"left_children":[1,3,5,7,9,11,13,15,17,19,21,23,25,-1,-1,-1,-1,-1,-1,-1,-1,-1,-1,-1,-1,-1,-1],"loss_changes":[6.477057E1,7.432272E1,1.699532E1,4.303157E1,3.432837E1,1.4920647E1,4.466284E0,4.028018E1,4.1695595E0,3.1722488E1,1.8838568E1,1.796114E1,7.8238907E0,0E0,0E0,0E0,0E0,0E0,0E0,0E0,0E0,0E0,0E0,0E0,0E0,0E0,0E0],"parents":[2147483647,0,0,1,1,2,2,3,3,4,4,5,5,6,6,7,7,8,8,9,9,10,10,11,11,12,12],"right_children":[2,4,6,8,10,12,14,16,18,20,22,24,26,-1,-1,-1,-1,-1,-1,-1,-1,-1,-1,-1,-1,-1,-1],"split_conditions":[1.0132793E0,1.4433184E-1,1.0093233E-1,4.686815E0,7.6005887E-3,-2.8374395E-1,4.5750584E-3,6.254195E-2,5.9073474E-2,4.0832244E-2,7.72121E-4,-1.4714937E-2,1.0598259E0,7.598322E-2,-1.4561302E-2,3.0785069E-2,-1.465944E-4,-6.3674584E-2,1.9994644E-2,-3.8156267E-2,2.0976333E-2,3.408348E-2,-1.1319891E-2,-4.0867437E-2,8.952391E-3,-4.640233E-2,2.2620823E-2],"split_indices":[400,386,36,395,383,386,189,212,71,364,343,302,392,0,0,0,0,0,0,0,0,0,0,0,0,0,0],"split_type":[0,0,0,0,0,0,0,0,0,0,0,0,0,0,0,0,0,0,0,0,0,0,0,0,0,0,0],"sum_hessian":[9.2286304E2,7.516964E2,1.7116667E2,4.952983E2,2.563981E2,1.657004E2,5.466268E0,4.7785577E2,1.7442533E1,1.661216E2,9.027649E1,7.180793E1,9.389247E1,3.9811113E0,1.4851569E0,3.216677E2,1.5618806E2,1.6265661E1,1.1768723E0,1.3975085E2,2.6370743E1,4.1063713E1,4.9212776E1,3.1248732E1,4.0559196E1,9.016135E1,3.7311292E0],"tree_param":{"num_deleted":"0","num_feature":"404","num_nodes":"27","size_leaf_vector":"1"}},{"base_weights":[2.8119895E-3,1.8984553E-1,-3.7211162E-1,2.5173607E-1,-1.1266918E0,-6.378841E-1,4.1048292E-2,4.649139E-1,-1.7939848E-1,3.477305E-1,-1.3008373E0,-9.6925545E-1,-3.248956E-1,-5.4261184E-1,3.526292E-1,2.8596608E-2,-1.886917E-2,1.1675134E-2,-2.9282004E-2,-3.6697473E-2,5.409314E-2,-6.8114973E-3,-6.859215E-2,-5.2570898E-2,4.2621363E-2,-4.7292497E-2,-2.234157E-3,-6.588205E-2,-9.926586E-3,3.887814E-2,-5.237233E-3],"categories":[],"categories_nodes":[],"categories_segments":[],"categories_sizes":[],"default_left":[0,0,0,0,0,0,0,0,0,0,0,0,0,0,0,0,0,0,0,0,0,0,0,0,0,0,0,0,0,0,0],"id":45,"left_children":[1,3,5,7,9,11,13,15,17,19,21,23,25,27,29,-1,-1,-1,-1,-1,-1,-1,-1,-1,-1,-1,-1,-1,-1,-1,-1],"loss_changes":[6.478771E1,5.0508682E1,3.379208E1,5.426721E1,7.6054306E0,1.9099564E1,2.2253153E1,3.5800323E1,3.2976074E1,3.7575207E0,1.8909378E0,1.4429848E1,1.6969507E1,1.1102937E1,1.55709715E1,0E0,0E0,0E0,0E0,0E0,0E0,0E0,0E0,0E0,0E0,0E0,0E0,0E0,0E0,0E0,0E0],"parents":[2147483647,0,0,1,1,2,2,3,3,4,4,5,5,6,6,7,7,8,8,9,9,10,10,11,11,12,12,13,13,14,14],"right_children":[2,4,6,8,10,12,14,16,18,20,22,24,26,28,30,-1,-1,-1,-1,-1,-1,-1,-1,-1,-1,-1,-1,-1,-1,-1,-1],"split_conditions":[1.0472313E0,4.686815E0,2.9149132E-3,1.6132374E-1,-8.440388E-2,7.962104E-3,-8.58865E-3,7.517455E-2,1.6984435E-2,-3.563939E-3,-2.121874E-2,8.7672204E-1,-3.990848E-5,-1.6627977E-2,-3.0098492E-3,2.8596608E-2,-1.886917E-2,1.1675134E-2,-2.9282004E-2,-3.6697473E-2,5.409314E-2,-6.8114973E-3,-6.859215E-2,-5.2570898E-2,4.2621363E-2,-4.7292497E-2,-2.234157E-3,-6.588205E-2,-9.926586E-3,3.887814E-2,-5.237233E-3],"split_indices":[391,395,277,386,9,132,146,387,171,359,130,399,249,209,274,0,0,0,0,0,0,0,0,0,0,0,0,0,0,0,0],"split_type":[0,0,0,0,0,0,0,0,0,0,0,0,0,0,0,0,0,0,0,0,0,0,0,0,0,0,0,0,0,0,0],"sum_hessian":[9.21904E2,6.154004E2,3.065036E2,5.885418E2,2.685862E1,1.861898E2,1.2031381E2,3.9376385E2,1.9477794E2,2.7319005E0,2.4126719E1,8.9420525E1,9.676927E1,4.161612E1,7.869769E1,3.4965887E2,4.4104984E1,9.6808075E1,9.796986E1,1.1046072E0,1.6272931E0,1.5541841E0,2.2572535E1,8.596607E1,3.4544535E0,2.935119E1,6.741808E1,1.1925305E1,2.9690815E1,4.0432713E1,3.826498E1],"tree_param":{"num_deleted":"0","num_feature":"404","num_nodes":"31","size_leaf_vector":"1"}},{"base_weights":[1.2971439E-3,5.7077236E-2,-1.111107E0,3.2683766E-1,-2.0540199E-1,2.0583162E-2,-1.1602484E0,4.765194E-1,-2.973202E-1,1.0105914E-3,-6.241898E-1,-5.9821416E-2,-3.5121336E-3,-2.1990181E-3,3.0440247E-2,1.7396921E-2,-3.0699883E-2,8.424336E-3,-4.9593586E-2,-3.7072334E-2,2.6059657E-2],"categories":[],"categories_nodes":[],"categories_segments":[],"categories_sizes":[],"default_left":[0,0,0,0,0,0,0,0,0,0,0,0,0,0,0,0,0,0,0,0,0],"id":46,"left_children":[1,3,5,7,9,-1,11,13,15,17,19,-1,-1,-1,-1,-1,-1,-1,-1,-1,-1],"loss_changes":[5.6586308E1,6.155407E1,3.736145E0,4.0187008E1,3.8099876E1,0E0,1.5898514E0,2.385807E1,1.7281181E1,4.9425243E1,1.9929699E1,0E0,0E0,0E0,0E0,0E0,0E0,0E0,0E0,0E0,0E0],"parents":[2147483647,0,0,1,1,2,2,3,3,4,4,6,6,7,7,8,8,9,9,10,10],"right_children":[2,4,6,8,10,-1,12,14,16,18,20,-1,-1,-1,-1,-1,-1,-1,-1,-1,-1],"split_conditions":[3.5413258E0,8.974987E-3,-3.673418E-1,1.0132793E0,-2.9435825E-1,2.0583162E-2,8.816964E-2,-6.429979E-2,-1.1998818E-3,7.517455E-2,1.0281334E-1,-5.9821416E-2,-3.5121336E-3,-2.1990181E-3,3.0440247E-2,1.7396921E-2,-3.0699883E-2,8.424336E-3,-4.9593586E-2,-3.7072334E-2,2.6059657E-2],"split_indices":[390,343,401,400,397,0,287,340,288,387,238,0,0,0,0,0,0,0,0,0,0],"split_type":[0,0,0,0,0,0,0,0,0,0,0,0,0,0,0,0,0,0,0,0,0],"sum_hessian":[9.0992474E2,8.6737976E2,4.2544964E1,4.2763596E2,4.397438E2,1.0994221E0,4.144554E1,3.4511026E2,8.252571E1,2.9522873E2,1.4451506E2,4.001956E1,1.4259828E0,7.007112E1,2.7503912E2,2.7135664E1,5.539005E1,2.5332843E2,4.1900303E1,1.3141438E2,1.3100687E1],"tree_param":{"num_deleted":"0","num_feature":"404","num_nodes":"21","size_leaf_vector":"1"}},{"base_weights":[-1.9081255E-3,-2.9428348E-1,2.3179135E-1,4.3896858E-2,-5.889734E-1,-3.9231315E-1,3.4826428E-1,4.4896838E-1,-3.457674E-1,-1.634631E-1,-9.154981E-1,-3.7413586E-2,-9.5278126E-1,4.963722E-1,-1.9464806E-2,3.4111097E-2,-1.5459381E-2,-2.7860502E-2,2.193608E-2,6.6425833E-3,-3.825828E-2,2.0674786E-2,-5.164053E-2,-1.6659124E-2,4.229088E-2,1.0189989E-2,-5.8985423E-2,8.2427235E-3,3.521456E-2,1.5299551E-2,-3.367824E-2],"categories":[],"categories_nodes":[],"categories_segments":[],"categories_sizes":[],"default_left":[0,0,0,0,0,0,0,0,0,0,0,0,0,0,0,0,0,0,0,0,0,0,0,0,0,0,0,0,0,0,0],"id":47,"left_children":[1,3,5,7,9,11,13,15,17,19,21,23,25,27,29,-1,-1,-1,-1,-1,-1,-1,-1,-1,-1,-1,-1,-1,-1,-1,-1],"loss_changes":[6.2587093E1,4.057736E1,3.7142086E1,3.020868E1,3.0070152E1,1.5983439E1,2.340408E1,1.6797096E1,1.6435734E1,1.7156244E1,1.9580086E1,1.3435136E1,8.4247875E0,2.0993309E1,2.6665716E1,0E0,0E0,0E0,0E0,0E0,0E0,0E0,0E0,0E0,0E0,0E0,0E0,0E0,0E0,0E0,0E0],"parents":[2147483647,0,0,1,1,2,2,3,3,4,4,5,5,6,6,7,7,8,8,9,9,10,10,11,11,12,12,13,13,14,14],"right_children":[2,4,6,8,10,12,14,16,18,20,22,24,26,28,30,-1,-1,-1,-1,-1,-1,-1,-1,-1,-1,-1,-1,-1,-1,-1,-1],"split_conditions":[-2.936963E-1,4.6120156E-3,-3.320647E-8,3.5508975E-2,-3.400114E-2,1.3333637E-2,-7.9847366E-2,-5.583053E-2,1.9027997E-2,8.1851965E-1,-7.153737E-2,3.0067755E-2,-7.721032E-2,-4.2693682E-2,5.353889E-2,3.4111097E-2,-1.5459381E-2,-2.7860502E-2,2.193608E-2,6.6425833E-3,-3.825828E-2,2.0674786E-2,-5.164053E-2,-1.6659124E-2,4.229088E-2,1.0189989E-2,-5.8985423E-2,8.2427235E-3,3.521456E-2,1.5299551E-2,-3.367824E-2],"split_indices":[399,298,319,212,221,275,397,385,70,400,67,10,158,340,131,0,0,0,0,0,0,0,0,0,0,0,0,0,0,0,0],"split_type":[0,0,0,0,0,0,0,0,0,0,0,0,0,0,0,0,0,0,0,0,0,0,0,0,0,0,0,0,0,0,0],"sum_hessian":[9.139823E2,4.0590536E2,5.0807693E2,1.8940218E2,2.1650319E2,7.9534386E1,4.2854254E2,9.279053E1,9.661165E1,9.465467E1,1.2184851E2,4.9351063E1,3.0183321E1,3.0524936E2,1.23293175E2,7.103586E1,2.175467E1,7.632858E1,2.028306E1,6.3943985E1,3.0710688E1,9.678565E0,1.12169945E2,3.7437187E1,1.1913874E1,4.9674764E0,2.5215845E1,1.18345505E2,1.8690387E2,8.268459E1,4.060858E1],"tree_param":{"num_deleted":"0","num_feature":"404",